digraph Tree {
node [shape=box, style="rounded", color="black", fontname=helvetica] ;
edge [fontname=helvetica] ;
0 [label="gross_area <= 156602.5\nmse = 2.42399175444e+13\nsamples = 5556\nvalue = 1070084.0"] ;
1 [label="gross_area <= 11009.0\nmse = 1.70781647148e+13\nsamples = 5552\nvalue = 1013942.0"] ;
0 -> 1 [labeldistance=2.5, labelangle=45, headlabel="True"] ;
2 [label="borough <= 1.5\nmse = 2.86519917322e+12\nsamples = 5464\nvalue = 743281.2"] ;
1 -> 2 ;
3 [label="numMisdemeanors <= 1703.0\nmse = 5.13715707364e+13\nsamples = 41\nvalue = 7893082.8"] ;
2 -> 3 ;
4 [label="poi10 <= 1.5\nmse = 1.48883061735e+13\nsamples = 4\nvalue = 25071571.4"] ;
3 -> 4 ;
5 [label="mse = 0.0\nsamples = 1\nvalue = 19000000.0"] ;
4 -> 5 ;
6 [label="poi4 <= 14.0\nmse = 1.9980006e+11\nsamples = 3\nvalue = 27500200.0"] ;
4 -> 6 ;
7 [label="gross_area <= 6945.0\nmse = 55444500000.0\nsamples = 2\nvalue = 27167000.0"] ;
6 -> 7 ;
8 [label="mse = 0.0\nsamples = 1\nvalue = 27500000.0"] ;
7 -> 8 ;
9 [label="mse = 0.0\nsamples = 1\nvalue = 27000500.0"] ;
7 -> 9 ;
10 [label="mse = 0.0\nsamples = 1\nvalue = 28000000.0"] ;
6 -> 10 ;
11 [label="poi10 <= 3.5\nmse = 1.95550592441e+13\nsamples = 37\nvalue = 6014185.7"] ;
3 -> 11 ;
12 [label="numFelonies <= 2800.0\nmse = 1.55961892523e+13\nsamples = 19\nvalue = 8672291.4"] ;
11 -> 12 ;
13 [label="year <= 1915.0\nmse = 1.0110672929e+13\nsamples = 15\nvalue = 7614615.4"] ;
12 -> 13 ;
14 [label="numFelonies <= 2343.0\nmse = 6.36078024575e+12\nsamples = 13\nvalue = 6890434.8"] ;
13 -> 14 ;
15 [label="gross_area <= 3186.0\nmse = 4.61294273356e+12\nsamples = 11\nvalue = 7898823.5"] ;
14 -> 15 ;
16 [label="poi11 <= 3.5\nmse = 1.59180625e+12\nsamples = 3\nvalue = 4972500.0"] ;
15 -> 16 ;
17 [label="mse = 0.0\nsamples = 1\nvalue = 6175000.0"] ;
16 -> 17 ;
18 [label="poi9 <= 2.5\nmse = 2.916e+11\nsamples = 2\nvalue = 3770000.0"] ;
16 -> 18 ;
19 [label="mse = 0.0\nsamples = 1\nvalue = 4310000.0"] ;
18 -> 19 ;
20 [label="mse = 0.0\nsamples = 1\nvalue = 3230000.0"] ;
18 -> 20 ;
21 [label="poi1 <= 15.5\nmse = 2.09690710059e+12\nsamples = 8\nvalue = 8799230.8"] ;
15 -> 21 ;
22 [label="mse = 0.0\nsamples = 1\nvalue = 13000000.0"] ;
21 -> 22 ;
23 [label="gross_area <= 4606.5\nmse = 6.78565972222e+11\nsamples = 7\nvalue = 8449166.7"] ;
21 -> 23 ;
24 [label="roadWidth <= 8474.0\nmse = 2.37059e+11\nsamples = 6\nvalue = 8139000.0"] ;
23 -> 24 ;
25 [label="mse = 0.0\nsamples = 1\nvalue = 9400000.0"] ;
24 -> 25 ;
26 [label="poi3 <= 46.5\nmse = 67087654321.0\nsamples = 5\nvalue = 7998888.9"] ;
24 -> 26 ;
27 [label="poi9 <= 4.5\nmse = 11500000000.0\nsamples = 4\nvalue = 7870000.0"] ;
26 -> 27 ;
28 [label="mse = 0.0\nsamples = 2\nvalue = 7750000.0"] ;
27 -> 28 ;
29 [label="poi9 <= 5.5\nmse = 1225000000.0\nsamples = 2\nvalue = 7960000.0"] ;
27 -> 29 ;
30 [label="mse = 0.0\nsamples = 1\nvalue = 7995000.0"] ;
29 -> 30 ;
31 [label="mse = 0.0\nsamples = 1\nvalue = 7925000.0"] ;
29 -> 31 ;
32 [label="mse = 0.0\nsamples = 1\nvalue = 8450000.0"] ;
26 -> 32 ;
33 [label="mse = 0.0\nsamples = 1\nvalue = 10000000.0"] ;
23 -> 33 ;
34 [label="poi9 <= 15.5\nmse = 2.68888888889e+11\nsamples = 2\nvalue = 4033333.3"] ;
14 -> 34 ;
35 [label="mse = 0.0\nsamples = 1\nvalue = 4400000.0"] ;
34 -> 35 ;
36 [label="mse = 0.0\nsamples = 1\nvalue = 3300000.0"] ;
34 -> 36 ;
37 [label="land_area <= 10959.0\nmse = 4.01388888889e+12\nsamples = 2\nvalue = 13166666.7"] ;
13 -> 37 ;
38 [label="mse = 0.0\nsamples = 1\nvalue = 11750000.0"] ;
37 -> 38 ;
39 [label="mse = 0.0\nsamples = 1\nvalue = 16000000.0"] ;
37 -> 39 ;
40 [label="land_area <= 4641.5\nmse = 8.05467624786e+12\nsamples = 4\nvalue = 14172206.8"] ;
12 -> 40 ;
41 [label="numMisdemeanors <= 6711.5\nmse = 3.37569846547e+12\nsamples = 3\nvalue = 13015258.5"] ;
40 -> 41 ;
42 [label="poi2 <= 25.5\nmse = 4.6013847759e+11\nsamples = 2\nvalue = 14020344.7"] ;
41 -> 42 ;
43 [label="mse = 0.0\nsamples = 1\nvalue = 14500000.0"] ;
42 -> 43 ;
44 [label="mse = 0.0\nsamples = 1\nvalue = 13061034.0"] ;
42 -> 44 ;
45 [label="mse = 0.0\nsamples = 1\nvalue = 10000000.0"] ;
41 -> 45 ;
46 [label="mse = 0.0\nsamples = 1\nvalue = 18800000.0"] ;
40 -> 46 ;
47 [label="numViolations <= 311.5\nmse = 1.04016340154e+13\nsamples = 18\nvalue = 3517177.2"] ;
11 -> 47 ;
48 [label="type <= 0.5\nmse = 3.64957552033e+12\nsamples = 2\nvalue = 11077962.0"] ;
47 -> 48 ;
49 [label="mse = 0.0\nsamples = 1\nvalue = 9975000.0"] ;
48 -> 49 ;
50 [label="mse = 0.0\nsamples = 1\nvalue = 14386848.0"] ;
48 -> 50 ;
51 [label="numMisdemeanors <= 1892.0\nmse = 2.36048917955e+12\nsamples = 16\nvalue = 2474310.3"] ;
47 -> 51 ;
52 [label="mse = 0.0\nsamples = 1\nvalue = 7765000.0"] ;
51 -> 52 ;
53 [label="poi7 <= 8.5\nmse = 1.40939630102e+12\nsamples = 15\nvalue = 2285357.1"] ;
51 -> 53 ;
54 [label="poi5 <= 1.0\nmse = 5.39851464844e+11\nsamples = 9\nvalue = 1530312.5"] ;
53 -> 54 ;
55 [label="land_area <= 5536.5\nmse = 5184000000.0\nsamples = 2\nvalue = 506000.0"] ;
54 -> 55 ;
56 [label="mse = 0.0\nsamples = 1\nvalue = 470000.0"] ;
55 -> 56 ;
57 [label="mse = 0.0\nsamples = 1\nvalue = 650000.0"] ;
55 -> 57 ;
58 [label="totalPoi <= 165.5\nmse = 89185537190.1\nsamples = 7\nvalue = 1995909.1"] ;
54 -> 58 ;
59 [label="numBuses <= 25.5\nmse = 30150000000.0\nsamples = 5\nvalue = 2150000.0"] ;
58 -> 59 ;
60 [label="poi13 <= 0.5\nmse = 555555555.6\nsamples = 2\nvalue = 2333333.3"] ;
59 -> 60 ;
61 [label="mse = 0.0\nsamples = 1\nvalue = 2350000.0"] ;
60 -> 61 ;
62 [label="mse = 0.0\nsamples = 1\nvalue = 2300000.0"] ;
60 -> 62 ;
63 [label="numMisdemeanors <= 5062.5\nmse = 15640000000.0\nsamples = 3\nvalue = 2040000.0"] ;
59 -> 63 ;
64 [label="mse = 0.0\nsamples = 1\nvalue = 1790000.0"] ;
63 -> 64 ;
65 [label="poi5 <= 4.5\nmse = 18750000.0\nsamples = 2\nvalue = 2102500.0"] ;
63 -> 65 ;
66 [label="mse = 0.0\nsamples = 1\nvalue = 2110000.0"] ;
65 -> 66 ;
67 [label="mse = 0.0\nsamples = 1\nvalue = 2100000.0"] ;
65 -> 67 ;
68 [label="poi4 <= 12.0\nmse = 14450000000.0\nsamples = 2\nvalue = 1585000.0"] ;
58 -> 68 ;
69 [label="mse = 0.0\nsamples = 1\nvalue = 1500000.0"] ;
68 -> 69 ;
70 [label="mse = 0.0\nsamples = 1\nvalue = 1755000.0"] ;
68 -> 70 ;
71 [label="poi9 <= 10.5\nmse = 7.95168576389e+11\nsamples = 6\nvalue = 3292083.3"] ;
53 -> 71 ;
72 [label="mse = 0.0\nsamples = 2\nvalue = 4300000.0"] ;
71 -> 72 ;
73 [label="roadWidth <= 9530.0\nmse = 1.19191836735e+11\nsamples = 4\nvalue = 2572142.9"] ;
71 -> 73 ;
74 [label="numViolations <= 1044.0\nmse = 39200000000.0\nsamples = 2\nvalue = 2205000.0"] ;
73 -> 74 ;
75 [label="mse = 0.0\nsamples = 1\nvalue = 2345000.0"] ;
74 -> 75 ;
76 [label="mse = 0.0\nsamples = 1\nvalue = 1925000.0"] ;
74 -> 76 ;
77 [label="gross_area <= 2110.5\nmse = 2268750000.0\nsamples = 2\nvalue = 2847500.0"] ;
73 -> 77 ;
78 [label="mse = 0.0\nsamples = 1\nvalue = 2765000.0"] ;
77 -> 78 ;
79 [label="mse = 0.0\nsamples = 1\nvalue = 2875000.0"] ;
77 -> 79 ;
80 [label="land_area <= 32632.0\nmse = 2.04220006755e+12\nsamples = 5423\nvalue = 684465.8"] ;
2 -> 80 ;
81 [label="gross_area <= 3584.0\nmse = 5.58288701902e+11\nsamples = 5417\nvalue = 659386.1"] ;
80 -> 81 ;
82 [label="numSubways <= 2.5\nmse = 2.54690646612e+11\nsamples = 5184\nvalue = 594779.7"] ;
81 -> 82 ;
83 [label="gross_area <= 1915.5\nmse = 1.45544984032e+11\nsamples = 5096\nvalue = 577293.2"] ;
82 -> 83 ;
84 [label="borough <= 4.5\nmse = 72027809569.6\nsamples = 3958\nvalue = 512362.3"] ;
83 -> 84 ;
85 [label="roadWidth <= 8385.0\nmse = 87079476002.6\nsamples = 2877\nvalue = 552731.3"] ;
84 -> 85 ;
86 [label="totalPoi <= 320.0\nmse = 58197028942.5\nsamples = 2364\nvalue = 519658.1"] ;
85 -> 86 ;
87 [label="borough <= 2.5\nmse = 60941665683.5\nsamples = 1437\nvalue = 582414.9"] ;
86 -> 87 ;
88 [label="poi5 <= 6.5\nmse = 18406428001.0\nsamples = 181\nvalue = 367938.6"] ;
87 -> 88 ;
89 [label="gross_area <= 1657.0\nmse = 15342759780.7\nsamples = 176\nvalue = 358342.9"] ;
88 -> 89 ;
90 [label="poi3 <= 1.5\nmse = 14373622557.6\nsamples = 131\nvalue = 336898.9"] ;
89 -> 90 ;
91 [label="poi2 <= 2.5\nmse = 9049668927.7\nsamples = 9\nvalue = 484018.6"] ;
90 -> 91 ;
92 [label="numMisdemeanors <= 382.0\nmse = 5350938724.0\nsamples = 4\nvalue = 410041.0"] ;
91 -> 92 ;
93 [label="poi1 <= 5.5\nmse = 466040450.0\nsamples = 2\nvalue = 466735.0"] ;
92 -> 93 ;
94 [label="mse = 0.0\nsamples = 1\nvalue = 482000.0"] ;
93 -> 94 ;
95 [label="mse = 0.0\nsamples = 1\nvalue = 436205.0"] ;
93 -> 95 ;
96 [label="year <= 1942.5\nmse = 625000000.0\nsamples = 2\nvalue = 325000.0"] ;
92 -> 96 ;
97 [label="mse = 0.0\nsamples = 1\nvalue = 350000.0"] ;
96 -> 97 ;
98 [label="mse = 0.0\nsamples = 1\nvalue = 300000.0"] ;
96 -> 98 ;
99 [label="numViolations <= 36.0\nmse = 3770888888.9\nsamples = 5\nvalue = 545666.7"] ;
91 -> 99 ;
100 [label="mse = 0.0\nsamples = 1\nvalue = 665000.0"] ;
99 -> 100 ;
101 [label="numBuses <= 4.5\nmse = 1107360000.0\nsamples = 4\nvalue = 521800.0"] ;
99 -> 101 ;
102 [label="numBuses <= 1.0\nmse = 392000000.0\nsamples = 2\nvalue = 498000.0"] ;
101 -> 102 ;
103 [label="mse = 0.0\nsamples = 1\nvalue = 512000.0"] ;
102 -> 103 ;
104 [label="mse = 0.0\nsamples = 1\nvalue = 470000.0"] ;
102 -> 104 ;
105 [label="land_area <= 3634.0\nmse = 56250000.0\nsamples = 2\nvalue = 557500.0"] ;
101 -> 105 ;
106 [label="mse = 0.0\nsamples = 1\nvalue = 565000.0"] ;
105 -> 106 ;
107 [label="mse = 0.0\nsamples = 1\nvalue = 550000.0"] ;
105 -> 107 ;
108 [label="poi6 <= 3.5\nmse = 13389515801.7\nsamples = 122\nvalue = 328642.2"] ;
90 -> 108 ;
109 [label="land_area <= 2946.5\nmse = 13733786032.0\nsamples = 92\nvalue = 346823.6"] ;
108 -> 109 ;
110 [label="land_area <= 2828.0\nmse = 10549143074.5\nsamples = 74\nvalue = 327460.2"] ;
109 -> 110 ;
111 [label="gross_area <= 1170.0\nmse = 9049731297.0\nsamples = 71\nvalue = 340553.2"] ;
110 -> 111 ;
112 [label="poi1 <= 24.5\nmse = 6283759315.6\nsamples = 32\nvalue = 298856.9"] ;
111 -> 112 ;
113 [label="land_area <= 1714.0\nmse = 3114731875.0\nsamples = 11\nvalue = 252425.0"] ;
112 -> 113 ;
114 [label="poi2 <= 12.5\nmse = 1855557851.2\nsamples = 6\nvalue = 287318.2"] ;
113 -> 114 ;
115 [label="poi5 <= 1.5\nmse = 194583333.3\nsamples = 5\nvalue = 325500.0"] ;
114 -> 115 ;
116 [label="poi6 <= 0.5\nmse = 20750000.0\nsamples = 3\nvalue = 334500.0"] ;
115 -> 116 ;
117 [label="mse = 0.0\nsamples = 1\nvalue = 330000.0"] ;
116 -> 117 ;
118 [label="numMisdemeanors <= 962.5\nmse = 1000000.0\nsamples = 2\nvalue = 339000.0"] ;
116 -> 118 ;
119 [label="mse = 0.0\nsamples = 1\nvalue = 338000.0"] ;
118 -> 119 ;
120 [label="mse = 0.0\nsamples = 1\nvalue = 340000.0"] ;
118 -> 120 ;
121 [label="poi7 <= 3.5\nmse = 56250000.0\nsamples = 2\nvalue = 307500.0"] ;
115 -> 121 ;
122 [label="mse = 0.0\nsamples = 1\nvalue = 315000.0"] ;
121 -> 122 ;
123 [label="mse = 0.0\nsamples = 1\nvalue = 300000.0"] ;
121 -> 123 ;
124 [label="mse = 0.0\nsamples = 1\nvalue = 241500.0"] ;
114 -> 124 ;
125 [label="totalPoi <= 10.5\nmse = 1346839506.2\nsamples = 5\nvalue = 209777.8"] ;
113 -> 125 ;
126 [label="mse = 0.0\nsamples = 1\nvalue = 300000.0"] ;
125 -> 126 ;
127 [label="poi12 <= 3.0\nmse = 370500000.0\nsamples = 4\nvalue = 198500.0"] ;
125 -> 127 ;
128 [label="poi3 <= 7.5\nmse = 80555555.6\nsamples = 3\nvalue = 188333.3"] ;
127 -> 128 ;
129 [label="numFelonies <= 324.5\nmse = 22222222.2\nsamples = 2\nvalue = 196666.7"] ;
128 -> 129 ;
130 [label="mse = 0.0\nsamples = 1\nvalue = 200000.0"] ;
129 -> 130 ;
131 [label="mse = 0.0\nsamples = 1\nvalue = 190000.0"] ;
129 -> 131 ;
132 [label="mse = 0.0\nsamples = 1\nvalue = 180000.0"] ;
128 -> 132 ;
133 [label="mse = 0.0\nsamples = 1\nvalue = 229000.0"] ;
127 -> 133 ;
134 [label="land_area <= 2298.5\nmse = 6040014027.1\nsamples = 21\nvalue = 328812.9"] ;
112 -> 134 ;
135 [label="roadWidth <= 4489.5\nmse = 6076519669.4\nsamples = 7\nvalue = 372381.8"] ;
134 -> 135 ;
136 [label="mse = 0.0\nsamples = 1\nvalue = 514000.0"] ;
135 -> 136 ;
137 [label="gross_area <= 930.0\nmse = 1979627654.3\nsamples = 6\nvalue = 340911.1"] ;
135 -> 137 ;
138 [label="year <= 1922.5\nmse = 591680000.0\nsamples = 2\nvalue = 284400.0"] ;
137 -> 138 ;
139 [label="mse = 0.0\nsamples = 1\nvalue = 301600.0"] ;
138 -> 139 ;
140 [label="mse = 0.0\nsamples = 1\nvalue = 250000.0"] ;
138 -> 140 ;
141 [label="poi2 <= 152.5\nmse = 278472222.2\nsamples = 4\nvalue = 369166.7"] ;
137 -> 141 ;
142 [label="gross_area <= 1128.0\nmse = 5555555.6\nsamples = 2\nvalue = 353333.3"] ;
141 -> 142 ;
143 [label="mse = 0.0\nsamples = 1\nvalue = 355000.0"] ;
142 -> 143 ;
144 [label="mse = 0.0\nsamples = 1\nvalue = 350000.0"] ;
142 -> 144 ;
145 [label="numViolations <= 6.0\nmse = 50000000.0\nsamples = 2\nvalue = 385000.0"] ;
141 -> 145 ;
146 [label="mse = 0.0\nsamples = 1\nvalue = 395000.0"] ;
145 -> 146 ;
147 [label="mse = 0.0\nsamples = 1\nvalue = 380000.0"] ;
145 -> 147 ;
148 [label="numRoads <= 215.0\nmse = 4401677500.0\nsamples = 14\nvalue = 304850.0"] ;
134 -> 148 ;
149 [label="totalPoi <= 56.0\nmse = 3212401662.0\nsamples = 13\nvalue = 296421.1"] ;
148 -> 149 ;
150 [label="mse = 0.0\nsamples = 1\nvalue = 397000.0"] ;
149 -> 150 ;
151 [label="poi9 <= 2.5\nmse = 2260183391.0\nsamples = 12\nvalue = 284588.2"] ;
149 -> 151 ;
152 [label="land_area <= 2506.0\nmse = 1796921875.0\nsamples = 11\nvalue = 278625.0"] ;
151 -> 152 ;
153 [label="poi7 <= 1.0\nmse = 1518852040.8\nsamples = 9\nvalue = 285928.6"] ;
152 -> 153 ;
154 [label="poi9 <= 0.5\nmse = 1091213017.8\nsamples = 8\nvalue = 279692.3"] ;
153 -> 154 ;
155 [label="poi2 <= 472.0\nmse = 394209876.5\nsamples = 5\nvalue = 297111.1"] ;
154 -> 155 ;
156 [label="poi3 <= 4.5\nmse = 45000000.0\nsamples = 3\nvalue = 287000.0"] ;
155 -> 156 ;
157 [label="mse = 0.0\nsamples = 1\nvalue = 292500.0"] ;
156 -> 157 ;
158 [label="gross_area <= 922.0\nmse = 10888888.9\nsamples = 2\nvalue = 279666.7"] ;
156 -> 158 ;
159 [label="mse = 0.0\nsamples = 1\nvalue = 282000.0"] ;
158 -> 159 ;
160 [label="mse = 0.0\nsamples = 1\nvalue = 275000.0"] ;
158 -> 160 ;
161 [label="numViolations <= 2.5\nmse = 6250000.0\nsamples = 2\nvalue = 332500.0"] ;
155 -> 161 ;
162 [label="mse = 0.0\nsamples = 1\nvalue = 330000.0"] ;
161 -> 162 ;
163 [label="mse = 0.0\nsamples = 1\nvalue = 335000.0"] ;
161 -> 163 ;
164 [label="gross_area <= 764.0\nmse = 440750000.0\nsamples = 3\nvalue = 240500.0"] ;
154 -> 164 ;
165 [label="mse = 0.0\nsamples = 1\nvalue = 207000.0"] ;
164 -> 165 ;
166 [label="gross_area <= 1013.0\nmse = 88888888.9\nsamples = 2\nvalue = 251666.7"] ;
164 -> 166 ;
167 [label="mse = 0.0\nsamples = 1\nvalue = 265000.0"] ;
166 -> 167 ;
168 [label="mse = 0.0\nsamples = 1\nvalue = 245000.0"] ;
166 -> 168 ;
169 [label="mse = 0.0\nsamples = 1\nvalue = 367000.0"] ;
153 -> 169 ;
170 [label="land_area <= 2564.0\nmse = 756250000.0\nsamples = 2\nvalue = 227500.0"] ;
152 -> 170 ;
171 [label="mse = 0.0\nsamples = 1\nvalue = 200000.0"] ;
170 -> 171 ;
172 [label="mse = 0.0\nsamples = 1\nvalue = 255000.0"] ;
170 -> 172 ;
173 [label="mse = 0.0\nsamples = 1\nvalue = 380000.0"] ;
151 -> 173 ;
174 [label="mse = 0.0\nsamples = 1\nvalue = 465000.0"] ;
148 -> 174 ;
175 [label="numFelonies <= 379.0\nmse = 8608871771.7\nsamples = 39\nvalue = 377217.2"] ;
111 -> 175 ;
176 [label="year <= 1917.5\nmse = 8131573213.3\nsamples = 25\nvalue = 405431.6"] ;
175 -> 176 ;
177 [label="mse = 0.0\nsamples = 1\nvalue = 610000.0"] ;
176 -> 177 ;
178 [label="land_area <= 2721.0\nmse = 6129263888.9\nsamples = 24\nvalue = 394066.7"] ;
176 -> 178 ;
179 [label="numRoads <= 81.5\nmse = 4826181903.1\nsamples = 23\nvalue = 384452.9"] ;
178 -> 179 ;
180 [label="mse = 0.0\nsamples = 1\nvalue = 220000.0"] ;
179 -> 180 ;
181 [label="numViolations <= 11.0\nmse = 4128056859.5\nsamples = 22\nvalue = 389436.4"] ;
179 -> 181 ;
182 [label="poi9 <= 2.5\nmse = 4531936053.7\nsamples = 13\nvalue = 372159.1"] ;
181 -> 182 ;
183 [label="totalPoi <= 114.0\nmse = 1405268055.6\nsamples = 10\nvalue = 380450.0"] ;
182 -> 183 ;
184 [label="mse = 0.0\nsamples = 1\nvalue = 439000.0"] ;
183 -> 184 ;
185 [label="gross_area <= 1205.5\nmse = 1274415847.8\nsamples = 9\nvalue = 377005.9"] ;
183 -> 185 ;
186 [label="mse = 0.0\nsamples = 1\nvalue = 325000.0"] ;
185 -> 186 ;
187 [label="land_area <= 2275.0\nmse = 1174463710.9\nsamples = 8\nvalue = 380256.2"] ;
185 -> 187 ;
188 [label="gross_area <= 1404.0\nmse = 9944722.2\nsamples = 3\nvalue = 364016.7"] ;
187 -> 188 ;
189 [label="mse = 0.0\nsamples = 1\nvalue = 357000.0"] ;
188 -> 189 ;
190 [label="land_area <= 2196.0\nmse = 117600.0\nsamples = 2\nvalue = 365420.0"] ;
188 -> 190 ;
191 [label="mse = 0.0\nsamples = 1\nvalue = 365700.0"] ;
190 -> 191 ;
192 [label="mse = 0.0\nsamples = 1\nvalue = 365000.0"] ;
190 -> 192 ;
193 [label="gross_area <= 1568.0\nmse = 1620000000.0\nsamples = 5\nvalue = 390000.0"] ;
187 -> 193 ;
194 [label="numViolations <= 1.0\nmse = 548437500.0\nsamples = 3\nvalue = 386250.0"] ;
193 -> 194 ;
195 [label="mse = 864000000.0\nsamples = 2\nvalue = 384000.0"] ;
194 -> 195 ;
196 [label="mse = 0.0\nsamples = 1\nvalue = 390000.0"] ;
194 -> 196 ;
197 [label="mse = 5625000000.0\nsamples = 2\nvalue = 405000.0"] ;
193 -> 197 ;
198 [label="poi7 <= 1.5\nmse = 16900647500.0\nsamples = 3\nvalue = 334850.0"] ;
182 -> 198 ;
199 [label="mse = 0.0\nsamples = 1\nvalue = 315000.0"] ;
198 -> 199 ;
200 [label="mse = 22359075555.6\nsamples = 2\nvalue = 341466.7"] ;
198 -> 200 ;
201 [label="year <= 1927.5\nmse = 1529273553.7\nsamples = 9\nvalue = 423990.9"] ;
181 -> 201 ;
202 [label="totalPoi <= 20.0\nmse = 504400000.0\nsamples = 5\nvalue = 392400.0"] ;
201 -> 202 ;
203 [label="mse = 0.0\nsamples = 1\nvalue = 440000.0"] ;
202 -> 203 ;
204 [label="numFelonies <= 322.0\nmse = 61497600.0\nsamples = 4\nvalue = 382880.0"] ;
202 -> 204 ;
205 [label="numMisdemeanors <= 739.5\nmse = 640000.0\nsamples = 2\nvalue = 392200.0"] ;
204 -> 205 ;
206 [label="mse = 0.0\nsamples = 1\nvalue = 391400.0"] ;
205 -> 206 ;
207 [label="mse = 0.0\nsamples = 1\nvalue = 393000.0"] ;
205 -> 207 ;
208 [label="roadWidth <= 7693.0\nmse = 5555555.6\nsamples = 2\nvalue = 376666.7"] ;
204 -> 208 ;
209 [label="mse = 0.0\nsamples = 1\nvalue = 375000.0"] ;
208 -> 209 ;
210 [label="mse = 0.0\nsamples = 1\nvalue = 380000.0"] ;
208 -> 210 ;
211 [label="gross_area <= 1458.5\nmse = 124440000.0\nsamples = 4\nvalue = 461900.0"] ;
201 -> 211 ;
212 [label="poi7 <= 1.0\nmse = 5555555.6\nsamples = 2\nvalue = 453333.3"] ;
211 -> 212 ;
213 [label="mse = 0.0\nsamples = 1\nvalue = 455000.0"] ;
212 -> 213 ;
214 [label="mse = 0.0\nsamples = 1\nvalue = 450000.0"] ;
212 -> 214 ;
215 [label="numMisdemeanors <= 370.5\nmse = 27562500.0\nsamples = 2\nvalue = 474750.0"] ;
211 -> 215 ;
216 [label="mse = 0.0\nsamples = 1\nvalue = 469500.0"] ;
215 -> 216 ;
217 [label="mse = 0.0\nsamples = 1\nvalue = 480000.0"] ;
215 -> 217 ;
218 [label="mse = 0.0\nsamples = 1\nvalue = 557500.0"] ;
178 -> 218 ;
219 [label="numRoads <= 182.0\nmse = 5129509900.0\nsamples = 14\nvalue = 323610.0"] ;
175 -> 219 ;
220 [label="mse = 0.0\nsamples = 1\nvalue = 160000.0"] ;
219 -> 220 ;
221 [label="poi3 <= 2.5\nmse = 2394735432.1\nsamples = 13\nvalue = 341788.9"] ;
219 -> 221 ;
222 [label="mse = 0.0\nsamples = 1\nvalue = 250000.0"] ;
221 -> 222 ;
223 [label="poi10 <= 1.5\nmse = 1509283593.8\nsamples = 12\nvalue = 353262.5"] ;
221 -> 223 ;
224 [label="poi13 <= 0.5\nmse = 458333333.3\nsamples = 6\nvalue = 388000.0"] ;
223 -> 224 ;
225 [label="poi6 <= 1.0\nmse = 64000000.0\nsamples = 5\nvalue = 379000.0"] ;
224 -> 225 ;
226 [label="mse = 0.0\nsamples = 1\nvalue = 365000.0"] ;
225 -> 226 ;
227 [label="numBuses <= 4.0\nmse = 18750000.0\nsamples = 4\nvalue = 382500.0"] ;
225 -> 227 ;
228 [label="mse = 0.0\nsamples = 1\nvalue = 390000.0"] ;
227 -> 228 ;
229 [label="mse = 0.0\nsamples = 3\nvalue = 380000.0"] ;
227 -> 229 ;
230 [label="mse = 0.0\nsamples = 1\nvalue = 433000.0"] ;
224 -> 230 ;
231 [label="poi11 <= 3.5\nmse = 981427600.0\nsamples = 6\nvalue = 332420.0"] ;
223 -> 231 ;
232 [label="gross_area <= 1409.0\nmse = 681159506.2\nsamples = 5\nvalue = 326022.2"] ;
231 -> 232 ;
233 [label="gross_area <= 1384.0\nmse = 70408888.9\nsamples = 2\nvalue = 304066.7"] ;
232 -> 233 ;
234 [label="mse = 0.0\nsamples = 1\nvalue = 310000.0"] ;
233 -> 234 ;
235 [label="mse = 0.0\nsamples = 1\nvalue = 292200.0"] ;
233 -> 235 ;
236 [label="land_area <= 1825.0\nmse = 625000000.0\nsamples = 3\nvalue = 337000.0"] ;
232 -> 236 ;
237 [label="mse = 0.0\nsamples = 1\nvalue = 320000.0"] ;
236 -> 237 ;
238 [label="year <= 1922.0\nmse = 720750000.0\nsamples = 2\nvalue = 345500.0"] ;
236 -> 238 ;
239 [label="mse = 0.0\nsamples = 1\nvalue = 330000.0"] ;
238 -> 239 ;
240 [label="mse = 0.0\nsamples = 1\nvalue = 392000.0"] ;
238 -> 240 ;
241 [label="mse = 0.0\nsamples = 1\nvalue = 390000.0"] ;
231 -> 241 ;
242 [label="land_area <= 2907.5\nmse = 1487654321.0\nsamples = 3\nvalue = 168888.9"] ;
110 -> 242 ;
243 [label="land_area <= 2877.0\nmse = 506250000.0\nsamples = 2\nvalue = 157500.0"] ;
242 -> 243 ;
244 [label="mse = 0.0\nsamples = 1\nvalue = 180000.0"] ;
243 -> 244 ;
245 [label="mse = 0.0\nsamples = 1\nvalue = 135000.0"] ;
243 -> 245 ;
246 [label="mse = 0.0\nsamples = 1\nvalue = 260000.0"] ;
242 -> 246 ;
247 [label="land_area <= 3083.0\nmse = 18915604347.3\nsamples = 18\nvalue = 428426.7"] ;
109 -> 247 ;
248 [label="poi1 <= 10.5\nmse = 5956250000.0\nsamples = 3\nvalue = 642500.0"] ;
247 -> 248 ;
249 [label="numFelonies <= 1064.5\nmse = 1054687500.0\nsamples = 2\nvalue = 693750.0"] ;
248 -> 249 ;
250 [label="mse = 0.0\nsamples = 1\nvalue = 675000.0"] ;
249 -> 250 ;
251 [label="mse = 0.0\nsamples = 1\nvalue = 750000.0"] ;
249 -> 251 ;
252 [label="mse = 0.0\nsamples = 1\nvalue = 540000.0"] ;
248 -> 252 ;
253 [label="poi13 <= 0.5\nmse = 6542946840.4\nsamples = 15\nvalue = 370043.0"] ;
247 -> 253 ;
254 [label="poi11 <= 0.5\nmse = 4038493985.6\nsamples = 13\nvalue = 353097.4"] ;
253 -> 254 ;
255 [label="numViolations <= 1.5\nmse = 3304576923.1\nsamples = 9\nvalue = 382000.0"] ;
254 -> 255 ;
256 [label="totalPoi <= 36.5\nmse = 2106004132.2\nsamples = 7\nvalue = 397636.4"] ;
255 -> 256 ;
257 [label="mse = 0.0\nsamples = 1\nvalue = 290000.0"] ;
256 -> 257 ;
258 [label="land_area <= 5114.5\nmse = 1042190000.0\nsamples = 6\nvalue = 408400.0"] ;
256 -> 258 ;
259 [label="poi9 <= 0.5\nmse = 122117284.0\nsamples = 5\nvalue = 398222.2"] ;
258 -> 259 ;
260 [label="poi5 <= 1.5\nmse = 562500.0\nsamples = 2\nvalue = 387250.0"] ;
259 -> 260 ;
261 [label="mse = 0.0\nsamples = 1\nvalue = 386500.0"] ;
260 -> 261 ;
262 [label="mse = 0.0\nsamples = 1\nvalue = 388000.0"] ;
260 -> 262 ;
263 [label="land_area <= 4144.0\nmse = 46000000.0\nsamples = 3\nvalue = 407000.0"] ;
259 -> 263 ;
264 [label="mse = 0.0\nsamples = 1\nvalue = 415000.0"] ;
263 -> 264 ;
265 [label="gross_area <= 1157.5\nmse = 5555555.6\nsamples = 2\nvalue = 401666.7"] ;
263 -> 265 ;
266 [label="mse = 0.0\nsamples = 1\nvalue = 405000.0"] ;
265 -> 266 ;
267 [label="mse = 0.0\nsamples = 1\nvalue = 400000.0"] ;
265 -> 267 ;
268 [label="mse = 0.0\nsamples = 1\nvalue = 500000.0"] ;
258 -> 268 ;
269 [label="numFelonies <= 886.0\nmse = 1156000000.0\nsamples = 2\nvalue = 296000.0"] ;
255 -> 269 ;
270 [label="mse = 0.0\nsamples = 1\nvalue = 262000.0"] ;
269 -> 270 ;
271 [label="mse = 0.0\nsamples = 1\nvalue = 330000.0"] ;
269 -> 271 ;
272 [label="poi5 <= 2.5\nmse = 968943509.4\nsamples = 4\nvalue = 299421.0"] ;
254 -> 272 ;
273 [label="numSubways <= 0.5\nmse = 7196778.2\nsamples = 2\nvalue = 302189.4"] ;
272 -> 273 ;
274 [label="mse = 0.0\nsamples = 1\nvalue = 305475.0"] ;
273 -> 274 ;
275 [label="mse = 0.0\nsamples = 1\nvalue = 299999.0"] ;
273 -> 275 ;
276 [label="mse = 3306250000.0\nsamples = 2\nvalue = 292500.0"] ;
272 -> 276 ;
277 [label="poi9 <= 0.5\nmse = 250000.0\nsamples = 2\nvalue = 539500.0"] ;
253 -> 277 ;
278 [label="mse = 0.0\nsamples = 1\nvalue = 539000.0"] ;
277 -> 278 ;
279 [label="mse = 0.0\nsamples = 1\nvalue = 540000.0"] ;
277 -> 279 ;
280 [label="poi10 <= 0.5\nmse = 8600469746.3\nsamples = 30\nvalue = 275552.4"] ;
108 -> 280 ;
281 [label="poi9 <= 1.5\nmse = 4427825843.5\nsamples = 10\nvalue = 355334.8"] ;
280 -> 281 ;
282 [label="numBuses <= 7.5\nmse = 1877854166.7\nsamples = 8\nvalue = 376750.0"] ;
281 -> 282 ;
283 [label="numMisdemeanors <= 844.0\nmse = 421428571.4\nsamples = 4\nvalue = 410000.0"] ;
282 -> 283 ;
284 [label="poi11 <= 1.0\nmse = 1687500.0\nsamples = 2\nvalue = 427750.0"] ;
283 -> 284 ;
285 [label="mse = 0.0\nsamples = 1\nvalue = 427000.0"] ;
284 -> 285 ;
286 [label="mse = 0.0\nsamples = 1\nvalue = 430000.0"] ;
284 -> 286 ;
287 [label="roadWidth <= 6041.0\nmse = 888888.9\nsamples = 2\nvalue = 386333.3"] ;
283 -> 287 ;
288 [label="mse = 0.0\nsamples = 1\nvalue = 385000.0"] ;
287 -> 288 ;
289 [label="mse = 0.0\nsamples = 1\nvalue = 387000.0"] ;
287 -> 289 ;
290 [label="gross_area <= 1106.0\nmse = 202160000.0\nsamples = 4\nvalue = 330200.0"] ;
282 -> 290 ;
291 [label="mse = 0.0\nsamples = 1\nvalue = 355000.0"] ;
290 -> 291 ;
292 [label="numBuses <= 8.5\nmse = 60500000.0\nsamples = 3\nvalue = 324000.0"] ;
290 -> 292 ;
293 [label="mse = 0.0\nsamples = 1\nvalue = 311000.0"] ;
292 -> 293 ;
294 [label="gross_area <= 1517.5\nmse = 5555555.6\nsamples = 2\nvalue = 328333.3"] ;
292 -> 294 ;
295 [label="mse = 0.0\nsamples = 1\nvalue = 330000.0"] ;
294 -> 295 ;
296 [label="mse = 0.0\nsamples = 1\nvalue = 325000.0"] ;
294 -> 296 ;
297 [label="poi2 <= 3.5\nmse = 465976982.3\nsamples = 2\nvalue = 226843.5"] ;
281 -> 297 ;
298 [label="mse = 0.0\nsamples = 1\nvalue = 205257.0"] ;
297 -> 298 ;
299 [label="mse = 0.0\nsamples = 1\nvalue = 248430.0"] ;
297 -> 299 ;
300 [label="poi3 <= 15.5\nmse = 6785151621.3\nsamples = 20\nvalue = 244525.9"] ;
280 -> 300 ;
301 [label="numSubways <= 0.5\nmse = 5776763004.1\nsamples = 15\nvalue = 269651.2"] ;
300 -> 301 ;
302 [label="poi2 <= 2.5\nmse = 1518271726.7\nsamples = 5\nvalue = 218813.2"] ;
301 -> 302 ;
303 [label="mse = 0.0\nsamples = 1\nvalue = 155000.0"] ;
302 -> 303 ;
304 [label="type <= 0.5\nmse = 214526357.6\nsamples = 4\nvalue = 240084.3"] ;
302 -> 304 ;
305 [label="mse = 0.0\nsamples = 1\nvalue = 259653.0"] ;
304 -> 305 ;
306 [label="totalPoi <= 34.5\nmse = 34590000.0\nsamples = 3\nvalue = 230300.0"] ;
304 -> 306 ;
307 [label="mse = 0.0\nsamples = 1\nvalue = 240000.0"] ;
306 -> 307 ;
308 [label="poi4 <= 5.5\nmse = 4302222.2\nsamples = 2\nvalue = 227066.7"] ;
306 -> 308 ;
309 [label="mse = 0.0\nsamples = 1\nvalue = 230000.0"] ;
308 -> 309 ;
310 [label="mse = 0.0\nsamples = 1\nvalue = 225600.0"] ;
308 -> 310 ;
311 [label="totalPoi <= 33.5\nmse = 6010242934.0\nsamples = 10\nvalue = 292245.8"] ;
301 -> 311 ;
312 [label="poi12 <= 1.0\nmse = 1849653867.2\nsamples = 3\nvalue = 380106.2"] ;
311 -> 312 ;
313 [label="poi5 <= 1.0\nmse = 51660156.3\nsamples = 2\nvalue = 422812.5"] ;
312 -> 313 ;
314 [label="mse = 0.0\nsamples = 1\nvalue = 415625.0"] ;
313 -> 314 ;
315 [label="mse = 0.0\nsamples = 1\nvalue = 430000.0"] ;
313 -> 315 ;
316 [label="mse = 0.0\nsamples = 1\nvalue = 337400.0"] ;
312 -> 316 ;
317 [label="totalPoi <= 195.5\nmse = 4363265306.1\nsamples = 7\nvalue = 267142.9"] ;
311 -> 317 ;
318 [label="numBuses <= 11.5\nmse = 4058333333.3\nsamples = 6\nvalue = 255000.0"] ;
317 -> 318 ;
319 [label="numFelonies <= 963.5\nmse = 476000000.0\nsamples = 4\nvalue = 242000.0"] ;
318 -> 319 ;
320 [label="totalPoi <= 48.0\nmse = 43750000.0\nsamples = 3\nvalue = 252500.0"] ;
319 -> 320 ;
321 [label="mse = 0.0\nsamples = 1\nvalue = 270000.0"] ;
320 -> 321 ;
322 [label="mse = 0.0\nsamples = 2\nvalue = 250000.0"] ;
320 -> 322 ;
323 [label="mse = 0.0\nsamples = 1\nvalue = 200000.0"] ;
319 -> 323 ;
324 [label="mse = 16900000000.0\nsamples = 2\nvalue = 320000.0"] ;
318 -> 324 ;
325 [label="mse = 0.0\nsamples = 1\nvalue = 340000.0"] ;
317 -> 325 ;
326 [label="land_area <= 2699.5\nmse = 3498160000.0\nsamples = 5\nvalue = 179200.0"] ;
300 -> 326 ;
327 [label="poi1 <= 19.5\nmse = 2196000000.0\nsamples = 3\nvalue = 227000.0"] ;
326 -> 327 ;
328 [label="mse = 0.0\nsamples = 1\nvalue = 320000.0"] ;
327 -> 328 ;
329 [label="poi7 <= 6.0\nmse = 42187500.0\nsamples = 2\nvalue = 203750.0"] ;
327 -> 329 ;
330 [label="mse = 0.0\nsamples = 1\nvalue = 215000.0"] ;
329 -> 330 ;
331 [label="mse = 0.0\nsamples = 1\nvalue = 200000.0"] ;
329 -> 331 ;
332 [label="poi11 <= 1.0\nmse = 230640000.0\nsamples = 2\nvalue = 131400.0"] ;
326 -> 332 ;
333 [label="mse = 0.0\nsamples = 1\nvalue = 150000.0"] ;
332 -> 333 ;
334 [label="mse = 0.0\nsamples = 1\nvalue = 119000.0"] ;
332 -> 334 ;
335 [label="numRoads <= 243.5\nmse = 12416706595.3\nsamples = 45\nvalue = 425599.0"] ;
89 -> 335 ;
336 [label="land_area <= 3165.0\nmse = 8633354775.5\nsamples = 44\nvalue = 417838.9"] ;
335 -> 336 ;
337 [label="numRoads <= 230.5\nmse = 7082877395.4\nsamples = 37\nvalue = 400900.6"] ;
336 -> 337 ;
338 [label="numFelonies <= 842.5\nmse = 5209092313.8\nsamples = 33\nvalue = 384698.6"] ;
337 -> 338 ;
339 [label="poi1 <= 216.5\nmse = 4372646811.5\nsamples = 25\nvalue = 397800.1"] ;
338 -> 339 ;
340 [label="land_area <= 1728.0\nmse = 3690247526.9\nsamples = 24\nvalue = 402461.2"] ;
339 -> 340 ;
341 [label="land_area <= 1646.0\nmse = 1714131977.8\nsamples = 6\nvalue = 353111.7"] ;
340 -> 341 ;
342 [label="poi13 <= 1.0\nmse = 31973338.9\nsamples = 2\nvalue = 391001.7"] ;
341 -> 342 ;
343 [label="mse = 0.0\nsamples = 1\nvalue = 395000.0"] ;
342 -> 343 ;
344 [label="mse = 0.0\nsamples = 1\nvalue = 383005.0"] ;
342 -> 344 ;
345 [label="poi2 <= 2.0\nmse = 1478472222.2\nsamples = 4\nvalue = 334166.7"] ;
341 -> 345 ;
346 [label="mse = 0.0\nsamples = 1\nvalue = 410000.0"] ;
345 -> 346 ;
347 [label="year <= 1957.5\nmse = 394000000.0\nsamples = 3\nvalue = 319000.0"] ;
345 -> 347 ;
348 [label="mse = 0.0\nsamples = 1\nvalue = 335000.0"] ;
347 -> 348 ;
349 [label="poi3 <= 10.0\nmse = 25000000.0\nsamples = 2\nvalue = 295000.0"] ;
347 -> 349 ;
350 [label="mse = 0.0\nsamples = 1\nvalue = 300000.0"] ;
349 -> 350 ;
351 [label="mse = 0.0\nsamples = 1\nvalue = 290000.0"] ;
349 -> 351 ;
352 [label="gross_area <= 1698.5\nmse = 3266560987.7\nsamples = 18\nvalue = 418911.1"] ;
340 -> 352 ;
353 [label="poi9 <= 0.5\nmse = 238888888.9\nsamples = 3\nvalue = 508333.3"] ;
352 -> 353 ;
354 [label="numRoads <= 115.5\nmse = 6250000.0\nsamples = 2\nvalue = 497500.0"] ;
353 -> 354 ;
355 [label="mse = 0.0\nsamples = 1\nvalue = 495000.0"] ;
354 -> 355 ;
356 [label="mse = 0.0\nsamples = 1\nvalue = 500000.0"] ;
354 -> 356 ;
357 [label="mse = 0.0\nsamples = 1\nvalue = 530000.0"] ;
353 -> 357 ;
358 [label="poi9 <= 0.5\nmse = 2520535555.6\nsamples = 15\nvalue = 407733.3"] ;
352 -> 358 ;
359 [label="land_area <= 2454.0\nmse = 3978808163.3\nsamples = 5\nvalue = 365257.1"] ;
358 -> 359 ;
360 [label="gross_area <= 1768.5\nmse = 1139235555.6\nsamples = 2\nvalue = 407266.7"] ;
359 -> 360 ;
361 [label="mse = 0.0\nsamples = 1\nvalue = 383400.0"] ;
360 -> 361 ;
362 [label="mse = 0.0\nsamples = 1\nvalue = 455000.0"] ;
360 -> 362 ;
363 [label="poi10 <= 2.0\nmse = 3792187500.0\nsamples = 3\nvalue = 333750.0"] ;
359 -> 363 ;
364 [label="poi5 <= 1.0\nmse = 938888888.9\nsamples = 2\nvalue = 301666.7"] ;
363 -> 364 ;
365 [label="mse = 0.0\nsamples = 1\nvalue = 280000.0"] ;
364 -> 365 ;
366 [label="mse = 0.0\nsamples = 1\nvalue = 345000.0"] ;
364 -> 366 ;
367 [label="mse = 0.0\nsamples = 1\nvalue = 430000.0"] ;
363 -> 367 ;
368 [label="poi10 <= 0.5\nmse = 871246505.2\nsamples = 10\nvalue = 425223.5"] ;
358 -> 368 ;
369 [label="poi1 <= 27.0\nmse = 163840000.0\nsamples = 3\nvalue = 457400.0"] ;
368 -> 369 ;
370 [label="mse = 0.0\nsamples = 1\nvalue = 435000.0"] ;
369 -> 370 ;
371 [label="totalPoi <= 182.5\nmse = 48000000.0\nsamples = 2\nvalue = 463000.0"] ;
369 -> 371 ;
372 [label="mse = 0.0\nsamples = 1\nvalue = 475000.0"] ;
371 -> 372 ;
373 [label="mse = 0.0\nsamples = 1\nvalue = 459000.0"] ;
371 -> 373 ;
374 [label="poi10 <= 1.5\nmse = 554869722.2\nsamples = 7\nvalue = 411816.7"] ;
368 -> 374 ;
375 [label="poi4 <= 3.5\nmse = 128560000.0\nsamples = 3\nvalue = 390800.0"] ;
374 -> 375 ;
376 [label="poi4 <= 2.0\nmse = 4000000.0\nsamples = 2\nvalue = 377000.0"] ;
375 -> 376 ;
377 [label="mse = 0.0\nsamples = 1\nvalue = 379000.0"] ;
376 -> 377 ;
378 [label="mse = 0.0\nsamples = 1\nvalue = 375000.0"] ;
376 -> 378 ;
379 [label="mse = 0.0\nsamples = 1\nvalue = 400000.0"] ;
375 -> 379 ;
380 [label="numMisdemeanors <= 815.5\nmse = 318519183.7\nsamples = 4\nvalue = 426828.6"] ;
374 -> 380 ;
381 [label="numRoads <= 204.0\nmse = 96142222.2\nsamples = 2\nvalue = 445933.3"] ;
380 -> 381 ;
382 [label="mse = 0.0\nsamples = 1\nvalue = 439000.0"] ;
381 -> 382 ;
383 [label="mse = 0.0\nsamples = 1\nvalue = 459800.0"] ;
381 -> 383 ;
384 [label="roadWidth <= 6310.5\nmse = 6250000.0\nsamples = 2\nvalue = 412500.0"] ;
380 -> 384 ;
385 [label="mse = 0.0\nsamples = 1\nvalue = 410000.0"] ;
384 -> 385 ;
386 [label="mse = 0.0\nsamples = 1\nvalue = 415000.0"] ;
384 -> 386 ;
387 [label="mse = 0.0\nsamples = 1\nvalue = 230000.0"] ;
339 -> 387 ;
388 [label="numMisdemeanors <= 1823.5\nmse = 5503148334.2\nsamples = 8\nvalue = 340629.6"] ;
338 -> 388 ;
389 [label="poi1 <= 10.0\nmse = 5065190298.5\nsamples = 6\nvalue = 364290.4"] ;
388 -> 389 ;
390 [label="land_area <= 2051.5\nmse = 5824978256.8\nsamples = 5\nvalue = 349053.8"] ;
389 -> 390 ;
391 [label="poi9 <= 1.5\nmse = 6561665461.7\nsamples = 3\nvalue = 355580.8"] ;
390 -> 391 ;
392 [label="mse = 0.0\nsamples = 1\nvalue = 360000.0"] ;
391 -> 392 ;
393 [label="mse = 13084271382.3\nsamples = 2\nvalue = 351161.5"] ;
391 -> 393 ;
394 [label="mse = 4096000000.0\nsamples = 2\nvalue = 336000.0"] ;
390 -> 394 ;
395 [label="mse = 0.0\nsamples = 1\nvalue = 410000.0"] ;
389 -> 395 ;
396 [label="year <= 1947.5\nmse = 1197137690.9\nsamples = 2\nvalue = 277534.3"] ;
388 -> 396 ;
397 [label="mse = 0.0\nsamples = 1\nvalue = 228603.0"] ;
396 -> 397 ;
398 [label="mse = 0.0\nsamples = 1\nvalue = 302000.0"] ;
396 -> 398 ;
399 [label="poi9 <= 1.5\nmse = 5788571428.6\nsamples = 4\nvalue = 512000.0"] ;
337 -> 399 ;
400 [label="numFelonies <= 428.0\nmse = 312555555.6\nsamples = 3\nvalue = 542333.3"] ;
399 -> 400 ;
401 [label="mse = 0.0\nsamples = 1\nvalue = 530000.0"] ;
400 -> 401 ;
402 [label="land_area <= 1775.0\nmse = 25000000.0\nsamples = 2\nvalue = 567000.0"] ;
400 -> 402 ;
403 [label="mse = 0.0\nsamples = 1\nvalue = 562000.0"] ;
402 -> 403 ;
404 [label="mse = 0.0\nsamples = 1\nvalue = 572000.0"] ;
402 -> 404 ;
405 [label="mse = 0.0\nsamples = 1\nvalue = 330000.0"] ;
399 -> 405 ;
406 [label="year <= 1927.5\nmse = 6904000000.0\nsamples = 7\nvalue = 511000.0"] ;
336 -> 406 ;
407 [label="poi12 <= 0.5\nmse = 2056000000.0\nsamples = 3\nvalue = 442000.0"] ;
406 -> 407 ;
408 [label="mse = 0.0\nsamples = 1\nvalue = 360000.0"] ;
407 -> 408 ;
409 [label="poi6 <= 2.0\nmse = 468750000.0\nsamples = 2\nvalue = 462500.0"] ;
407 -> 409 ;
410 [label="mse = 0.0\nsamples = 1\nvalue = 450000.0"] ;
409 -> 410 ;
411 [label="mse = 0.0\nsamples = 1\nvalue = 500000.0"] ;
409 -> 411 ;
412 [label="land_area <= 3806.5\nmse = 2230000000.0\nsamples = 4\nvalue = 580000.0"] ;
406 -> 412 ;
413 [label="poi12 <= 1.5\nmse = 306250000.0\nsamples = 2\nvalue = 527500.0"] ;
412 -> 413 ;
414 [label="mse = 0.0\nsamples = 1\nvalue = 545000.0"] ;
413 -> 414 ;
415 [label="mse = 0.0\nsamples = 1\nvalue = 510000.0"] ;
413 -> 415 ;
416 [label="poi2 <= 28.0\nmse = 450000000.0\nsamples = 2\nvalue = 615000.0"] ;
412 -> 416 ;
417 [label="mse = 0.0\nsamples = 1\nvalue = 645000.0"] ;
416 -> 417 ;
418 [label="mse = 0.0\nsamples = 1\nvalue = 600000.0"] ;
416 -> 418 ;
419 [label="mse = 0.0\nsamples = 1\nvalue = 930000.0"] ;
335 -> 419 ;
420 [label="poi12 <= 2.5\nmse = 23821839667.4\nsamples = 5\nvalue = 659010.4"] ;
88 -> 420 ;
421 [label="numRoads <= 153.5\nmse = 997165573.1\nsamples = 4\nvalue = 740156.3"] ;
420 -> 421 ;
422 [label="mse = 1117014.2\nsamples = 2\nvalue = 775364.7"] ;
421 -> 422 ;
423 [label="poi3 <= 22.0\nmse = 117187500.0\nsamples = 2\nvalue = 713750.0"] ;
421 -> 423 ;
424 [label="mse = 0.0\nsamples = 1\nvalue = 695000.0"] ;
423 -> 424 ;
425 [label="mse = 0.0\nsamples = 1\nvalue = 720000.0"] ;
423 -> 425 ;
426 [label="mse = 0.0\nsamples = 1\nvalue = 375000.0"] ;
420 -> 426 ;
427 [label="numFelonies <= 235.5\nmse = 59537435713.4\nsamples = 1256\nvalue = 612671.2"] ;
87 -> 427 ;
428 [label="gross_area <= 403.0\nmse = 53795040101.4\nsamples = 978\nvalue = 651795.7"] ;
427 -> 428 ;
429 [label="mse = 0.0\nsamples = 1\nvalue = 2400000.0"] ;
428 -> 429 ;
430 [label="land_area <= 3667.0\nmse = 49965337385.9\nsamples = 977\nvalue = 649568.7"] ;
428 -> 430 ;
431 [label="roadWidth <= 5971.5\nmse = 38530634229.5\nsamples = 513\nvalue = 592877.2"] ;
430 -> 431 ;
432 [label="year <= 1930.5\nmse = 30474450034.1\nsamples = 179\nvalue = 503122.8"] ;
431 -> 432 ;
433 [label="gross_area <= 784.0\nmse = 26178227863.5\nsamples = 97\nvalue = 440207.9"] ;
432 -> 433 ;
434 [label="land_area <= 2400.0\nmse = 10501995937.6\nsamples = 11\nvalue = 206319.1"] ;
433 -> 434 ;
435 [label="poi3 <= 21.0\nmse = 10753237871.7\nsamples = 6\nvalue = 272941.0"] ;
434 -> 435 ;
436 [label="gross_area <= 686.0\nmse = 1032779869.2\nsamples = 4\nvalue = 345234.2"] ;
435 -> 436 ;
437 [label="poi13 <= 1.5\nmse = 76012242.3\nsamples = 2\nvalue = 313718.5"] ;
436 -> 437 ;
438 [label="mse = 0.0\nsamples = 1\nvalue = 305000.0"] ;
437 -> 438 ;
439 [label="mse = 0.0\nsamples = 1\nvalue = 322437.0"] ;
437 -> 439 ;
440 [label="year <= 1927.5\nmse = 3062500.0\nsamples = 2\nvalue = 376750.0"] ;
436 -> 440 ;
441 [label="mse = 0.0\nsamples = 1\nvalue = 375000.0"] ;
440 -> 441 ;
442 [label="mse = 0.0\nsamples = 1\nvalue = 378500.0"] ;
440 -> 442 ;
443 [label="gross_area <= 714.0\nmse = 7454205000.0\nsamples = 2\nvalue = 176550.0"] ;
435 -> 443 ;
444 [label="mse = 0.0\nsamples = 1\nvalue = 115500.0"] ;
443 -> 444 ;
445 [label="mse = 0.0\nsamples = 1\nvalue = 298650.0"] ;
443 -> 445 ;
446 [label="poi10 <= 1.0\nmse = 1373791270.4\nsamples = 5\nvalue = 139697.1"] ;
434 -> 446 ;
447 [label="mse = 0.0\nsamples = 1\nvalue = 223250.0"] ;
446 -> 447 ;
448 [label="poi3 <= 9.5\nmse = 245324272.2\nsamples = 4\nvalue = 125771.7"] ;
446 -> 448 ;
449 [label="poi1 <= 33.5\nmse = 50000000.0\nsamples = 2\nvalue = 140000.0"] ;
448 -> 449 ;
450 [label="mse = 0.0\nsamples = 1\nvalue = 150000.0"] ;
449 -> 450 ;
451 [label="mse = 0.0\nsamples = 1\nvalue = 135000.0"] ;
449 -> 451 ;
452 [label="roadWidth <= 3631.5\nmse = 35757605.6\nsamples = 2\nvalue = 111543.3"] ;
448 -> 452 ;
453 [label="mse = 0.0\nsamples = 1\nvalue = 120000.0"] ;
452 -> 453 ;
454 [label="mse = 0.0\nsamples = 1\nvalue = 107315.0"] ;
452 -> 454 ;
455 [label="numMisdemeanors <= 120.5\nmse = 21932837586.7\nsamples = 86\nvalue = 462635.6"] ;
433 -> 455 ;
456 [label="land_area <= 3585.0\nmse = 16776064692.5\nsamples = 78\nvalue = 443516.3"] ;
455 -> 456 ;
457 [label="roadWidth <= 1852.0\nmse = 14677026072.1\nsamples = 76\nvalue = 452142.8"] ;
456 -> 457 ;
458 [label="year <= 1925.0\nmse = 144000000.0\nsamples = 2\nvalue = 132000.0"] ;
457 -> 458 ;
459 [label="mse = 0.0\nsamples = 1\nvalue = 120000.0"] ;
458 -> 459 ;
460 [label="mse = 0.0\nsamples = 1\nvalue = 144000.0"] ;
458 -> 460 ;
461 [label="land_area <= 1550.0\nmse = 13288694651.3\nsamples = 74\nvalue = 457106.2"] ;
457 -> 461 ;
462 [label="poi6 <= 1.5\nmse = 10325782400.0\nsamples = 4\nvalue = 278840.0"] ;
461 -> 462 ;
463 [label="mse = 0.0\nsamples = 1\nvalue = 160000.0"] ;
462 -> 463 ;
464 [label="numRoads <= 145.5\nmse = 1517475555.6\nsamples = 3\nvalue = 358066.7"] ;
462 -> 464 ;
465 [label="mse = 0.0\nsamples = 1\nvalue = 304200.0"] ;
464 -> 465 ;
466 [label="poi9 <= 0.5\nmse = 100000000.0\nsamples = 2\nvalue = 385000.0"] ;
464 -> 466 ;
467 [label="mse = 0.0\nsamples = 1\nvalue = 375000.0"] ;
466 -> 467 ;
468 [label="mse = 0.0\nsamples = 1\nvalue = 395000.0"] ;
466 -> 468 ;
469 [label="poi1 <= 21.5\nmse = 12075092357.1\nsamples = 70\nvalue = 464294.4"] ;
461 -> 469 ;
470 [label="poi2 <= 4.0\nmse = 11083360101.0\nsamples = 4\nvalue = 357956.9"] ;
469 -> 470 ;
471 [label="mse = 0.0\nsamples = 1\nvalue = 650000.0"] ;
470 -> 471 ;
472 [label="poi3 <= 8.0\nmse = 474989352.3\nsamples = 3\nvalue = 321451.5"] ;
470 -> 472 ;
473 [label="poi1 <= 7.0\nmse = 158035692.0\nsamples = 2\nvalue = 314516.0"] ;
472 -> 473 ;
474 [label="mse = 0.0\nsamples = 1\nvalue = 300000.0"] ;
473 -> 474 ;
475 [label="mse = 0.0\nsamples = 1\nvalue = 325403.0"] ;
473 -> 475 ;
476 [label="mse = 0.0\nsamples = 1\nvalue = 370000.0"] ;
472 -> 476 ;
477 [label="poi8 <= 2.5\nmse = 11198502127.9\nsamples = 66\nvalue = 472616.4"] ;
469 -> 477 ;
478 [label="gross_area <= 1317.0\nmse = 10052713411.6\nsamples = 61\nvalue = 483378.8"] ;
477 -> 478 ;
479 [label="poi6 <= 2.5\nmse = 7144611128.6\nsamples = 31\nvalue = 444275.5"] ;
478 -> 479 ;
480 [label="roadWidth <= 2520.0\nmse = 6819602011.8\nsamples = 25\nvalue = 467890.0"] ;
479 -> 480 ;
481 [label="mse = 0.0\nsamples = 1\nvalue = 158876.0"] ;
480 -> 481 ;
482 [label="poi5 <= 2.5\nmse = 4483229738.7\nsamples = 24\nvalue = 475813.5"] ;
480 -> 482 ;
483 [label="totalPoi <= 104.5\nmse = 3630392109.1\nsamples = 18\nvalue = 457473.3"] ;
482 -> 483 ;
484 [label="year <= 1922.5\nmse = 9196907929.7\nsamples = 3\nvalue = 375368.8"] ;
483 -> 484 ;
485 [label="mse = 0.0\nsamples = 1\nvalue = 456475.0"] ;
484 -> 485 ;
486 [label="mse = 9338888888.9\nsamples = 2\nvalue = 348333.3"] ;
484 -> 486 ;
487 [label="land_area <= 3195.0\nmse = 1488591550.0\nsamples = 15\nvalue = 470610.0"] ;
483 -> 487 ;
488 [label="poi1 <= 33.5\nmse = 1003859236.8\nsamples = 14\nvalue = 477619.6"] ;
487 -> 488 ;
489 [label="mse = 0.0\nsamples = 1\nvalue = 575000.0"] ;
488 -> 489 ;
490 [label="poi3 <= 7.5\nmse = 598853192.1\nsamples = 13\nvalue = 473193.2"] ;
488 -> 490 ;
491 [label="poi1 <= 138.0\nmse = 286482389.1\nsamples = 8\nvalue = 483896.2"] ;
490 -> 491 ;
492 [label="totalPoi <= 135.5\nmse = 111812586.8\nsamples = 7\nvalue = 487804.2"] ;
491 -> 492 ;
493 [label="poi5 <= 0.5\nmse = 2653350.0\nsamples = 2\nvalue = 476330.0"] ;
492 -> 493 ;
494 [label="mse = 0.0\nsamples = 1\nvalue = 475000.0"] ;
493 -> 494 ;
495 [label="mse = 0.0\nsamples = 1\nvalue = 478325.0"] ;
493 -> 495 ;
496 [label="poi2 <= 199.5\nmse = 28571428.6\nsamples = 5\nvalue = 496000.0"] ;
492 -> 496 ;
497 [label="poi1 <= 85.0\nmse = 888888.9\nsamples = 2\nvalue = 501333.3"] ;
496 -> 497 ;
498 [label="mse = 0.0\nsamples = 1\nvalue = 502000.0"] ;
497 -> 498 ;
499 [label="mse = 0.0\nsamples = 1\nvalue = 500000.0"] ;
497 -> 499 ;
500 [label="gross_area <= 1220.5\nmse = 12000000.0\nsamples = 3\nvalue = 492000.0"] ;
496 -> 500 ;
501 [label="mse = 0.0\nsamples = 2\nvalue = 490000.0"] ;
500 -> 501 ;
502 [label="mse = 0.0\nsamples = 1\nvalue = 498000.0"] ;
500 -> 502 ;
503 [label="mse = 0.0\nsamples = 1\nvalue = 437000.0"] ;
491 -> 503 ;
504 [label="gross_area <= 1184.0\nmse = 645582222.2\nsamples = 5\nvalue = 457733.3"] ;
490 -> 504 ;
505 [label="year <= 1925.0\nmse = 265104375.0\nsamples = 4\nvalue = 450575.0"] ;
504 -> 505 ;
506 [label="poi11 <= 0.5\nmse = 55449600.0\nsamples = 2\nvalue = 460920.0"] ;
505 -> 506 ;
507 [label="mse = 0.0\nsamples = 1\nvalue = 467000.0"] ;
506 -> 507 ;
508 [label="mse = 0.0\nsamples = 1\nvalue = 451800.0"] ;
506 -> 508 ;
509 [label="gross_area <= 1102.0\nmse = 138888888.9\nsamples = 2\nvalue = 433333.3"] ;
505 -> 509 ;
510 [label="mse = 0.0\nsamples = 1\nvalue = 450000.0"] ;
509 -> 510 ;
511 [label="mse = 0.0\nsamples = 1\nvalue = 425000.0"] ;
509 -> 511 ;
512 [label="mse = 0.0\nsamples = 1\nvalue = 515000.0"] ;
504 -> 512 ;
513 [label="mse = 0.0\nsamples = 1\nvalue = 390000.0"] ;
487 -> 513 ;
514 [label="totalPoi <= 99.0\nmse = 3152200000.0\nsamples = 6\nvalue = 529000.0"] ;
482 -> 514 ;
515 [label="numRoads <= 148.0\nmse = 1344240000.0\nsamples = 3\nvalue = 487400.0"] ;
514 -> 515 ;
516 [label="numViolations <= 1.5\nmse = 42250000.0\nsamples = 2\nvalue = 505500.0"] ;
515 -> 516 ;
517 [label="mse = 0.0\nsamples = 1\nvalue = 499000.0"] ;
516 -> 517 ;
518 [label="mse = 0.0\nsamples = 1\nvalue = 512000.0"] ;
516 -> 518 ;
519 [label="mse = 0.0\nsamples = 1\nvalue = 415000.0"] ;
515 -> 519 ;
520 [label="gross_area <= 1081.0\nmse = 1499040000.0\nsamples = 3\nvalue = 570600.0"] ;
514 -> 520 ;
521 [label="mse = 0.0\nsamples = 1\nvalue = 618000.0"] ;
520 -> 521 ;
522 [label="poi4 <= 4.5\nmse = 2000000.0\nsamples = 2\nvalue = 539000.0"] ;
520 -> 522 ;
523 [label="mse = 0.0\nsamples = 1\nvalue = 540000.0"] ;
522 -> 523 ;
524 [label="mse = 0.0\nsamples = 1\nvalue = 537000.0"] ;
522 -> 524 ;
525 [label="land_area <= 2550.0\nmse = 1149313609.5\nsamples = 6\nvalue = 371615.4"] ;
479 -> 525 ;
526 [label="gross_area <= 1214.5\nmse = 232687500.0\nsamples = 3\nvalue = 394750.0"] ;
525 -> 526 ;
527 [label="poi8 <= 1.0\nmse = 250000.0\nsamples = 2\nvalue = 379500.0"] ;
526 -> 527 ;
528 [label="mse = 0.0\nsamples = 1\nvalue = 380000.0"] ;
527 -> 528 ;
529 [label="mse = 0.0\nsamples = 1\nvalue = 379000.0"] ;
527 -> 529 ;
530 [label="mse = 0.0\nsamples = 1\nvalue = 410000.0"] ;
526 -> 530 ;
531 [label="land_area <= 2787.5\nmse = 389440000.0\nsamples = 3\nvalue = 334600.0"] ;
525 -> 531 ;
532 [label="mse = 0.0\nsamples = 1\nvalue = 299000.0"] ;
531 -> 532 ;
533 [label="numViolations <= 3.0\nmse = 90750000.0\nsamples = 2\nvalue = 343500.0"] ;
531 -> 533 ;
534 [label="mse = 0.0\nsamples = 1\nvalue = 360000.0"] ;
533 -> 534 ;
535 [label="mse = 0.0\nsamples = 1\nvalue = 338000.0"] ;
533 -> 535 ;
536 [label="poi3 <= 9.5\nmse = 9834487633.6\nsamples = 30\nvalue = 524015.5"] ;
478 -> 536 ;
537 [label="gross_area <= 1492.0\nmse = 7490506887.1\nsamples = 17\nvalue = 493909.1"] ;
536 -> 537 ;
538 [label="year <= 1922.5\nmse = 4029400000.0\nsamples = 6\nvalue = 562000.0"] ;
537 -> 538 ;
539 [label="poi3 <= 5.5\nmse = 210250000.0\nsamples = 2\nvalue = 630500.0"] ;
538 -> 539 ;
540 [label="mse = 0.0\nsamples = 1\nvalue = 616000.0"] ;
539 -> 540 ;
541 [label="mse = 0.0\nsamples = 1\nvalue = 645000.0"] ;
539 -> 541 ;
542 [label="poi2 <= 258.0\nmse = 1361888888.9\nsamples = 4\nvalue = 516333.3"] ;
538 -> 542 ;
543 [label="poi4 <= 2.0\nmse = 256888888.9\nsamples = 2\nvalue = 482666.7"] ;
542 -> 543 ;
544 [label="mse = 0.0\nsamples = 1\nvalue = 494000.0"] ;
543 -> 544 ;
545 [label="mse = 0.0\nsamples = 1\nvalue = 460000.0"] ;
543 -> 545 ;
546 [label="gross_area <= 1418.0\nmse = 200000000.0\nsamples = 2\nvalue = 550000.0"] ;
542 -> 546 ;
547 [label="mse = 0.0\nsamples = 1\nvalue = 530000.0"] ;
546 -> 547 ;
548 [label="mse = 0.0\nsamples = 1\nvalue = 560000.0"] ;
546 -> 548 ;
549 [label="totalPoi <= 106.5\nmse = 6103081285.4\nsamples = 11\nvalue = 464304.3"] ;
537 -> 549 ;
550 [label="year <= 1927.5\nmse = 6006250000.0\nsamples = 2\nvalue = 597500.0"] ;
549 -> 550 ;
551 [label="mse = 0.0\nsamples = 1\nvalue = 675000.0"] ;
550 -> 551 ;
552 [label="mse = 0.0\nsamples = 1\nvalue = 520000.0"] ;
550 -> 552 ;
553 [label="poi6 <= 0.5\nmse = 1602193905.8\nsamples = 9\nvalue = 436263.2"] ;
549 -> 553 ;
554 [label="year <= 1927.5\nmse = 1234083333.3\nsamples = 5\nvalue = 454500.0"] ;
553 -> 554 ;
555 [label="mse = 0.0\nsamples = 1\nvalue = 478000.0"] ;
554 -> 555 ;
556 [label="numRoads <= 130.0\nmse = 1400000000.0\nsamples = 4\nvalue = 446666.7"] ;
554 -> 556 ;
557 [label="mse = 3025000000.0\nsamples = 2\nvalue = 455000.0"] ;
556 -> 557 ;
558 [label="mse = 0.0\nsamples = 2\nvalue = 440000.0"] ;
556 -> 558 ;
559 [label="numBuses <= 0.5\nmse = 685714285.7\nsamples = 4\nvalue = 405000.0"] ;
553 -> 559 ;
560 [label="land_area <= 3071.0\nmse = 274000000.0\nsamples = 3\nvalue = 419000.0"] ;
559 -> 560 ;
561 [label="poi10 <= 1.0\nmse = 42187500.0\nsamples = 2\nvalue = 411250.0"] ;
560 -> 561 ;
562 [label="mse = 0.0\nsamples = 1\nvalue = 400000.0"] ;
561 -> 562 ;
563 [label="mse = 0.0\nsamples = 1\nvalue = 415000.0"] ;
561 -> 563 ;
564 [label="mse = 0.0\nsamples = 1\nvalue = 450000.0"] ;
560 -> 564 ;
565 [label="mse = 0.0\nsamples = 1\nvalue = 370000.0"] ;
559 -> 565 ;
566 [label="poi5 <= 3.5\nmse = 9423571885.4\nsamples = 13\nvalue = 579210.5"] ;
536 -> 566 ;
567 [label="poi9 <= 2.5\nmse = 5102008993.5\nsamples = 9\nvalue = 636526.3"] ;
566 -> 567 ;
568 [label="land_area <= 3221.0\nmse = 1462849100.1\nsamples = 4\nvalue = 694214.8"] ;
567 -> 568 ;
569 [label="poi7 <= 1.0\nmse = 377004963.4\nsamples = 3\nvalue = 679057.8"] ;
568 -> 569 ;
570 [label="mse = 0.0\nsamples = 1\nvalue = 640289.0"] ;
569 -> 570 ;
571 [label="poi13 <= 1.5\nmse = 1562500.0\nsamples = 2\nvalue = 688750.0"] ;
569 -> 571 ;
572 [label="mse = 0.0\nsamples = 1\nvalue = 690000.0"] ;
571 -> 572 ;
573 [label="mse = 0.0\nsamples = 1\nvalue = 687500.0"] ;
571 -> 573 ;
574 [label="mse = 0.0\nsamples = 1\nvalue = 770000.0"] ;
568 -> 574 ;
575 [label="poi2 <= 241.5\nmse = 683160000.0\nsamples = 5\nvalue = 567300.0"] ;
567 -> 575 ;
576 [label="numRoads <= 158.0\nmse = 3062500.0\nsamples = 2\nvalue = 598250.0"] ;
575 -> 576 ;
577 [label="mse = 0.0\nsamples = 1\nvalue = 600000.0"] ;
576 -> 577 ;
578 [label="mse = 0.0\nsamples = 1\nvalue = 596500.0"] ;
576 -> 578 ;
579 [label="poi6 <= 3.5\nmse = 72222222.2\nsamples = 3\nvalue = 546666.7"] ;
575 -> 579 ;
580 [label="poi12 <= 0.5\nmse = 6250000.0\nsamples = 2\nvalue = 552500.0"] ;
579 -> 580 ;
581 [label="mse = 0.0\nsamples = 1\nvalue = 555000.0"] ;
580 -> 581 ;
582 [label="mse = 0.0\nsamples = 1\nvalue = 550000.0"] ;
580 -> 582 ;
583 [label="mse = 0.0\nsamples = 1\nvalue = 535000.0"] ;
579 -> 583 ;
584 [label="roadWidth <= 5413.5\nmse = 2940122449.0\nsamples = 4\nvalue = 489142.9"] ;
566 -> 584 ;
585 [label="poi5 <= 5.5\nmse = 216750000.0\nsamples = 2\nvalue = 533500.0"] ;
584 -> 585 ;
586 [label="mse = 0.0\nsamples = 1\nvalue = 525000.0"] ;
585 -> 586 ;
587 [label="mse = 0.0\nsamples = 1\nvalue = 559000.0"] ;
585 -> 587 ;
588 [label="poi6 <= 4.0\nmse = 450000000.0\nsamples = 2\nvalue = 430000.0"] ;
584 -> 588 ;
589 [label="mse = 0.0\nsamples = 1\nvalue = 415000.0"] ;
588 -> 589 ;
590 [label="mse = 0.0\nsamples = 1\nvalue = 460000.0"] ;
588 -> 590 ;
591 [label="totalPoi <= 155.5\nmse = 10582685950.4\nsamples = 5\nvalue = 370863.6"] ;
477 -> 591 ;
592 [label="year <= 1922.5\nmse = 12244898.0\nsamples = 3\nvalue = 448571.4"] ;
591 -> 592 ;
593 [label="mse = 0.0\nsamples = 1\nvalue = 440000.0"] ;
592 -> 593 ;
594 [label="mse = 0.0\nsamples = 2\nvalue = 450000.0"] ;
592 -> 594 ;
595 [label="poi9 <= 1.0\nmse = 20671875.0\nsamples = 2\nvalue = 234875.0"] ;
591 -> 595 ;
596 [label="mse = 0.0\nsamples = 1\nvalue = 227000.0"] ;
595 -> 596 ;
597 [label="mse = 0.0\nsamples = 1\nvalue = 237500.0"] ;
595 -> 597 ;
598 [label="poi12 <= 1.0\nmse = 3267000000.0\nsamples = 2\nvalue = 161000.0"] ;
456 -> 598 ;
599 [label="mse = 0.0\nsamples = 1\nvalue = 128000.0"] ;
598 -> 599 ;
600 [label="mse = 0.0\nsamples = 1\nvalue = 260000.0"] ;
598 -> 600 ;
601 [label="numFelonies <= 167.0\nmse = 25675396033.1\nsamples = 8\nvalue = 697281.8"] ;
455 -> 601 ;
602 [label="numFelonies <= 102.0\nmse = 10855859375.0\nsamples = 6\nvalue = 778125.0"] ;
601 -> 602 ;
603 [label="mse = 0.0\nsamples = 1\nvalue = 960000.0"] ;
602 -> 603 ;
604 [label="numViolations <= 56.5\nmse = 7006122449.0\nsamples = 5\nvalue = 752142.9"] ;
602 -> 604 ;
605 [label="poi6 <= 1.5\nmse = 6566000000.0\nsamples = 3\nvalue = 782000.0"] ;
604 -> 605 ;
606 [label="mse = 0.0\nsamples = 1\nvalue = 825000.0"] ;
605 -> 606 ;
607 [label="gross_area <= 1068.0\nmse = 8888888888.9\nsamples = 2\nvalue = 753333.3"] ;
605 -> 607 ;
608 [label="mse = 0.0\nsamples = 1\nvalue = 820000.0"] ;
607 -> 608 ;
609 [label="mse = 0.0\nsamples = 1\nvalue = 620000.0"] ;
607 -> 609 ;
610 [label="numRoads <= 137.5\nmse = 306250000.0\nsamples = 2\nvalue = 677500.0"] ;
604 -> 610 ;
611 [label="mse = 0.0\nsamples = 1\nvalue = 695000.0"] ;
610 -> 611 ;
612 [label="mse = 0.0\nsamples = 1\nvalue = 660000.0"] ;
610 -> 612 ;
613 [label="numMisdemeanors <= 282.0\nmse = 1290320000.0\nsamples = 2\nvalue = 481700.0"] ;
601 -> 613 ;
614 [label="mse = 0.0\nsamples = 1\nvalue = 456300.0"] ;
613 -> 614 ;
615 [label="mse = 0.0\nsamples = 1\nvalue = 532500.0"] ;
613 -> 615 ;
616 [label="poi11 <= 3.5\nmse = 26444276163.8\nsamples = 82\nvalue = 569348.9"] ;
432 -> 616 ;
617 [label="totalPoi <= 205.0\nmse = 20323682705.3\nsamples = 81\nvalue = 560120.0"] ;
616 -> 617 ;
618 [label="poi8 <= 0.5\nmse = 12746833659.2\nsamples = 49\nvalue = 612002.7"] ;
617 -> 618 ;
619 [label="totalPoi <= 51.0\nmse = 8875989403.3\nsamples = 41\nvalue = 644239.8"] ;
618 -> 619 ;
620 [label="year <= 1952.5\nmse = 8824562130.2\nsamples = 7\nvalue = 528769.2"] ;
619 -> 620 ;
621 [label="poi4 <= 1.0\nmse = 2725000000.0\nsamples = 4\nvalue = 445000.0"] ;
620 -> 621 ;
622 [label="numViolations <= 17.0\nmse = 96000000.0\nsamples = 3\nvalue = 422000.0"] ;
621 -> 622 ;
623 [label="mse = 0.0\nsamples = 1\nvalue = 440000.0"] ;
622 -> 623 ;
624 [label="totalPoi <= 10.0\nmse = 18750000.0\nsamples = 2\nvalue = 417500.0"] ;
622 -> 624 ;
625 [label="mse = 0.0\nsamples = 1\nvalue = 420000.0"] ;
624 -> 625 ;
626 [label="mse = 0.0\nsamples = 1\nvalue = 410000.0"] ;
624 -> 626 ;
627 [label="mse = 0.0\nsamples = 1\nvalue = 560000.0"] ;
621 -> 627 ;
628 [label="roadWidth <= 5416.5\nmse = 2882387755.1\nsamples = 3\nvalue = 600571.4"] ;
620 -> 628 ;
629 [label="borough <= 3.5\nmse = 43560000.0\nsamples = 2\nvalue = 566800.0"] ;
628 -> 629 ;
630 [label="mse = 0.0\nsamples = 1\nvalue = 563500.0"] ;
629 -> 630 ;
631 [label="mse = 0.0\nsamples = 1\nvalue = 580000.0"] ;
629 -> 631 ;
632 [label="mse = 0.0\nsamples = 1\nvalue = 685000.0"] ;
628 -> 632 ;
633 [label="year <= 1965.0\nmse = 5439815056.3\nsamples = 34\nvalue = 668848.3"] ;
619 -> 633 ;
634 [label="poi1 <= 11.5\nmse = 5240963605.4\nsamples = 30\nvalue = 655584.9"] ;
633 -> 634 ;
635 [label="mse = 0.0\nsamples = 1\nvalue = 850000.0"] ;
634 -> 635 ;
636 [label="numMisdemeanors <= 0.5\nmse = 4560808019.8\nsamples = 29\nvalue = 651617.3"] ;
634 -> 636 ;
637 [label="poi2 <= 110.0\nmse = 2001551380.7\nsamples = 27\nvalue = 661457.4"] ;
636 -> 637 ;
638 [label="poi3 <= 3.5\nmse = 702000000.0\nsamples = 3\nvalue = 611000.0"] ;
637 -> 638 ;
639 [label="mse = 0.0\nsamples = 1\nvalue = 575000.0"] ;
638 -> 639 ;
640 [label="roadWidth <= 4913.0\nmse = 81000000.0\nsamples = 2\nvalue = 629000.0"] ;
638 -> 640 ;
641 [label="mse = 0.0\nsamples = 1\nvalue = 638000.0"] ;
640 -> 641 ;
642 [label="mse = 0.0\nsamples = 1\nvalue = 620000.0"] ;
640 -> 642 ;
643 [label="poi5 <= 1.5\nmse = 1764627305.2\nsamples = 24\nvalue = 668841.5"] ;
637 -> 643 ;
644 [label="poi6 <= 0.5\nmse = 1124548418.2\nsamples = 20\nvalue = 677013.9"] ;
643 -> 644 ;
645 [label="totalPoi <= 150.5\nmse = 352609375.0\nsamples = 5\nvalue = 704125.0"] ;
644 -> 645 ;
646 [label="poi1 <= 27.5\nmse = 189583333.3\nsamples = 4\nvalue = 712500.0"] ;
645 -> 646 ;
647 [label="mse = 0.0\nsamples = 1\nvalue = 740000.0"] ;
646 -> 647 ;
648 [label="poi2 <= 137.0\nmse = 46000000.0\nsamples = 3\nvalue = 707000.0"] ;
646 -> 648 ;
649 [label="poi1 <= 45.0\nmse = 5555555.6\nsamples = 2\nvalue = 701666.7"] ;
648 -> 649 ;
650 [label="mse = 0.0\nsamples = 1\nvalue = 705000.0"] ;
649 -> 650 ;
651 [label="mse = 0.0\nsamples = 1\nvalue = 700000.0"] ;
649 -> 651 ;
652 [label="mse = 0.0\nsamples = 1\nvalue = 715000.0"] ;
648 -> 652 ;
653 [label="mse = 0.0\nsamples = 1\nvalue = 679000.0"] ;
645 -> 653 ;
654 [label="land_area <= 3389.5\nmse = 1075097895.4\nsamples = 15\nvalue = 669267.9"] ;
644 -> 654 ;
655 [label="totalPoi <= 180.5\nmse = 798722908.1\nsamples = 14\nvalue = 665907.4"] ;
654 -> 655 ;
656 [label="poi10 <= 3.5\nmse = 229034722.2\nsamples = 12\nvalue = 659333.3"] ;
655 -> 656 ;
657 [label="poi2 <= 130.0\nmse = 114485207.1\nsamples = 8\nvalue = 647730.8"] ;
656 -> 657 ;
658 [label="mse = 0.0\nsamples = 1\nvalue = 620000.0"] ;
657 -> 658 ;
659 [label="numViolations <= 8.5\nmse = 54602430.6\nsamples = 7\nvalue = 650041.7"] ;
657 -> 659 ;
660 [label="poi6 <= 1.5\nmse = 41322500.0\nsamples = 6\nvalue = 652050.0"] ;
659 -> 660 ;
661 [label="mse = 0.0\nsamples = 2\nvalue = 650000.0"] ;
660 -> 661 ;
662 [label="gross_area <= 976.0\nmse = 56459183.7\nsamples = 4\nvalue = 652928.6"] ;
660 -> 662 ;
663 [label="mse = 64583333.3\nsamples = 3\nvalue = 652500.0"] ;
662 -> 663 ;
664 [label="mse = 0.0\nsamples = 1\nvalue = 655500.0"] ;
662 -> 664 ;
665 [label="mse = 0.0\nsamples = 1\nvalue = 640000.0"] ;
659 -> 665 ;
666 [label="totalPoi <= 170.5\nmse = 17293388.4\nsamples = 4\nvalue = 673045.5"] ;
656 -> 666 ;
667 [label="year <= 1952.5\nmse = 27960000.0\nsamples = 3\nvalue = 670700.0"] ;
666 -> 667 ;
668 [label="mse = 68062500.0\nsamples = 2\nvalue = 671750.0"] ;
667 -> 668 ;
669 [label="mse = 0.0\nsamples = 1\nvalue = 670000.0"] ;
667 -> 669 ;
670 [label="mse = 0.0\nsamples = 1\nvalue = 675000.0"] ;
666 -> 670 ;
671 [label="gross_area <= 1406.0\nmse = 2244500000.0\nsamples = 2\nvalue = 718500.0"] ;
655 -> 671 ;
672 [label="mse = 0.0\nsamples = 1\nvalue = 685000.0"] ;
671 -> 672 ;
673 [label="mse = 0.0\nsamples = 1\nvalue = 785500.0"] ;
671 -> 673 ;
674 [label="mse = 0.0\nsamples = 1\nvalue = 760000.0"] ;
654 -> 674 ;
675 [label="gross_area <= 1275.0\nmse = 2430000000.0\nsamples = 4\nvalue = 610000.0"] ;
643 -> 675 ;
676 [label="poi3 <= 17.5\nmse = 506250000.0\nsamples = 3\nvalue = 587500.0"] ;
675 -> 676 ;
677 [label="year <= 1945.0\nmse = 50000000.0\nsamples = 2\nvalue = 575000.0"] ;
676 -> 677 ;
678 [label="mse = 0.0\nsamples = 1\nvalue = 565000.0"] ;
677 -> 678 ;
679 [label="mse = 0.0\nsamples = 1\nvalue = 580000.0"] ;
677 -> 679 ;
680 [label="mse = 0.0\nsamples = 1\nvalue = 625000.0"] ;
676 -> 680 ;
681 [label="mse = 0.0\nsamples = 1\nvalue = 700000.0"] ;
675 -> 681 ;
682 [label="poi10 <= 2.0\nmse = 8954174502.3\nsamples = 2\nvalue = 420373.5"] ;
636 -> 682 ;
683 [label="mse = 0.0\nsamples = 1\nvalue = 325747.0"] ;
682 -> 683 ;
684 [label="mse = 0.0\nsamples = 1\nvalue = 515000.0"] ;
682 -> 684 ;
685 [label="poi1 <= 37.0\nmse = 1909413223.1\nsamples = 4\nvalue = 729136.4"] ;
633 -> 685 ;
686 [label="land_area <= 2121.0\nmse = 1764433593.8\nsamples = 3\nvalue = 713812.5"] ;
685 -> 686 ;
687 [label="totalPoi <= 92.5\nmse = 248062500.0\nsamples = 2\nvalue = 736750.0"] ;
686 -> 687 ;
688 [label="mse = 0.0\nsamples = 1\nvalue = 752500.0"] ;
687 -> 688 ;
689 [label="mse = 0.0\nsamples = 1\nvalue = 721000.0"] ;
687 -> 689 ;
690 [label="mse = 0.0\nsamples = 1\nvalue = 645000.0"] ;
686 -> 690 ;
691 [label="mse = 0.0\nsamples = 1\nvalue = 770000.0"] ;
685 -> 691 ;
692 [label="poi3 <= 12.0\nmse = 3613288085.9\nsamples = 8\nvalue = 462906.2"] ;
618 -> 692 ;
693 [label="poi2 <= 161.0\nmse = 2061444444.4\nsamples = 4\nvalue = 498166.7"] ;
692 -> 693 ;
694 [label="poi7 <= 1.0\nmse = 237160000.0\nsamples = 2\nvalue = 535700.0"] ;
693 -> 694 ;
695 [label="mse = 0.0\nsamples = 1\nvalue = 528000.0"] ;
694 -> 695 ;
696 [label="mse = 0.0\nsamples = 1\nvalue = 566500.0"] ;
694 -> 696 ;
697 [label="gross_area <= 1622.0\nmse = 379687500.0\nsamples = 2\nvalue = 451250.0"] ;
693 -> 697 ;
698 [label="mse = 0.0\nsamples = 1\nvalue = 440000.0"] ;
697 -> 698 ;
699 [label="mse = 0.0\nsamples = 1\nvalue = 485000.0"] ;
697 -> 699 ;
700 [label="year <= 1945.0\nmse = 1954744898.0\nsamples = 4\nvalue = 417571.4"] ;
692 -> 700 ;
701 [label="mse = 0.0\nsamples = 1\nvalue = 457500.0"] ;
700 -> 701 ;
702 [label="year <= 1991.5\nmse = 1843840000.0\nsamples = 3\nvalue = 401600.0"] ;
700 -> 702 ;
703 [label="numRoads <= 157.0\nmse = 470222222.2\nsamples = 2\nvalue = 369333.3"] ;
702 -> 703 ;
704 [label="mse = 0.0\nsamples = 1\nvalue = 400000.0"] ;
703 -> 704 ;
705 [label="mse = 0.0\nsamples = 1\nvalue = 354000.0"] ;
703 -> 705 ;
706 [label="mse = 0.0\nsamples = 1\nvalue = 450000.0"] ;
702 -> 706 ;
707 [label="poi10 <= 0.5\nmse = 21594631788.8\nsamples = 32\nvalue = 482295.9"] ;
617 -> 707 ;
708 [label="poi5 <= 1.5\nmse = 9903422797.3\nsamples = 25\nvalue = 432369.8"] ;
707 -> 708 ;
709 [label="poi3 <= 10.5\nmse = 4991767732.2\nsamples = 22\nvalue = 460327.4"] ;
708 -> 709 ;
710 [label="year <= 1937.5\nmse = 2965348533.2\nsamples = 19\nvalue = 442804.1"] ;
709 -> 710 ;
711 [label="land_area <= 2021.0\nmse = 3289694446.0\nsamples = 4\nvalue = 492104.7"] ;
710 -> 711 ;
712 [label="mse = 0.0\nsamples = 1\nvalue = 445000.0"] ;
711 -> 712 ;
713 [label="numRoads <= 161.5\nmse = 3379232583.0\nsamples = 3\nvalue = 509769.0"] ;
711 -> 713 ;
714 [label="mse = 8587138616.9\nsamples = 2\nvalue = 526050.7"] ;
713 -> 714 ;
715 [label="mse = 0.0\nsamples = 1\nvalue = 500000.0"] ;
713 -> 715 ;
716 [label="poi6 <= 0.5\nmse = 1364760946.7\nsamples = 15\nvalue = 421946.2"] ;
710 -> 716 ;
717 [label="poi1 <= 102.5\nmse = 1496867654.3\nsamples = 7\nvalue = 388788.9"] ;
716 -> 717 ;
718 [label="poi2 <= 229.0\nmse = 1493862400.0\nsamples = 4\nvalue = 366960.0"] ;
717 -> 718 ;
719 [label="mse = 0.0\nsamples = 1\nvalue = 440000.0"] ;
718 -> 719 ;
720 [label="land_area <= 2795.0\nmse = 200190000.0\nsamples = 3\nvalue = 348700.0"] ;
718 -> 720 ;
721 [label="mse = 0.0\nsamples = 1\nvalue = 362400.0"] ;
720 -> 721 ;
722 [label="year <= 1976.0\nmse = 25000000.0\nsamples = 2\nvalue = 335000.0"] ;
720 -> 722 ;
723 [label="mse = 0.0\nsamples = 1\nvalue = 330000.0"] ;
722 -> 723 ;
724 [label="mse = 0.0\nsamples = 1\nvalue = 340000.0"] ;
722 -> 724 ;
725 [label="gross_area <= 1302.5\nmse = 160466875.0\nsamples = 3\nvalue = 416075.0"] ;
717 -> 725 ;
726 [label="roadWidth <= 3929.5\nmse = 54775555.6\nsamples = 2\nvalue = 409766.7"] ;
725 -> 726 ;
727 [label="mse = 0.0\nsamples = 1\nvalue = 415000.0"] ;
726 -> 727 ;
728 [label="mse = 0.0\nsamples = 1\nvalue = 399300.0"] ;
726 -> 728 ;
729 [label="mse = 0.0\nsamples = 1\nvalue = 435000.0"] ;
725 -> 729 ;
730 [label="land_area <= 1800.0\nmse = 404647058.8\nsamples = 8\nvalue = 439500.0"] ;
716 -> 730 ;
731 [label="mse = 10775510.2\nsamples = 3\nvalue = 417714.3"] ;
730 -> 731 ;
732 [label="roadWidth <= 5658.0\nmse = 115562500.0\nsamples = 5\nvalue = 454750.0"] ;
730 -> 732 ;
733 [label="numRoads <= 148.0\nmse = 67283950.6\nsamples = 4\nvalue = 457222.2"] ;
732 -> 733 ;
734 [label="mse = 0.0\nsamples = 1\nvalue = 465000.0"] ;
733 -> 734 ;
735 [label="gross_area <= 1262.0\nmse = 55555555.6\nsamples = 3\nvalue = 453333.3"] ;
733 -> 735 ;
736 [label="mse = 0.0\nsamples = 1\nvalue = 470000.0"] ;
735 -> 736 ;
737 [label="mse = 0.0\nsamples = 2\nvalue = 450000.0"] ;
735 -> 737 ;
738 [label="mse = 0.0\nsamples = 1\nvalue = 432500.0"] ;
732 -> 738 ;
739 [label="numSubways <= 0.5\nmse = 900000000.0\nsamples = 3\nvalue = 590000.0"] ;
709 -> 739 ;
740 [label="mse = 0.0\nsamples = 2\nvalue = 575000.0"] ;
739 -> 740 ;
741 [label="mse = 0.0\nsamples = 1\nvalue = 650000.0"] ;
739 -> 741 ;
742 [label="gross_area <= 1480.0\nmse = 513888888.9\nsamples = 3\nvalue = 236666.7"] ;
708 -> 742 ;
743 [label="poi3 <= 8.5\nmse = 88888888.9\nsamples = 2\nvalue = 258333.3"] ;
742 -> 743 ;
744 [label="mse = 0.0\nsamples = 1\nvalue = 245000.0"] ;
743 -> 744 ;
745 [label="mse = 0.0\nsamples = 1\nvalue = 265000.0"] ;
743 -> 745 ;
746 [label="mse = 0.0\nsamples = 1\nvalue = 215000.0"] ;
742 -> 746 ;
747 [label="poi1 <= 130.0\nmse = 18507291666.7\nsamples = 7\nvalue = 682000.0"] ;
707 -> 747 ;
748 [label="roadWidth <= 5435.5\nmse = 3645228395.1\nsamples = 5\nvalue = 753222.2"] ;
747 -> 748 ;
749 [label="poi3 <= 13.0\nmse = 651388888.9\nsamples = 3\nvalue = 789166.7"] ;
748 -> 749 ;
750 [label="gross_area <= 1697.5\nmse = 225000000.0\nsamples = 2\nvalue = 805000.0"] ;
749 -> 750 ;
751 [label="mse = 0.0\nsamples = 1\nvalue = 790000.0"] ;
750 -> 751 ;
752 [label="mse = 0.0\nsamples = 1\nvalue = 820000.0"] ;
750 -> 752 ;
753 [label="mse = 0.0\nsamples = 1\nvalue = 757500.0"] ;
749 -> 753 ;
754 [label="poi2 <= 349.5\nmse = 1880888888.9\nsamples = 2\nvalue = 681333.3"] ;
748 -> 754 ;
755 [label="mse = 0.0\nsamples = 1\nvalue = 712000.0"] ;
754 -> 755 ;
756 [label="mse = 0.0\nsamples = 1\nvalue = 620000.0"] ;
754 -> 756 ;
757 [label="land_area <= 2700.0\nmse = 2222222222.2\nsamples = 2\nvalue = 468333.3"] ;
747 -> 757 ;
758 [label="mse = 0.0\nsamples = 1\nvalue = 435000.0"] ;
757 -> 758 ;
759 [label="mse = 0.0\nsamples = 1\nvalue = 535000.0"] ;
757 -> 759 ;
760 [label="mse = 0.0\nsamples = 1\nvalue = 1261520.0"] ;
616 -> 760 ;
761 [label="numViolations <= 146.0\nmse = 35619529843.3\nsamples = 334\nvalue = 646833.7"] ;
431 -> 761 ;
762 [label="gross_area <= 1394.0\nmse = 29513202550.3\nsamples = 333\nvalue = 643384.3"] ;
761 -> 762 ;
763 [label="land_area <= 1792.5\nmse = 26017823012.0\nsamples = 193\nvalue = 586750.1"] ;
762 -> 763 ;
764 [label="gross_area <= 1292.5\nmse = 16028659846.1\nsamples = 33\nvalue = 472080.9"] ;
763 -> 764 ;
765 [label="poi5 <= 4.5\nmse = 10342490468.3\nsamples = 24\nvalue = 518327.3"] ;
764 -> 765 ;
766 [label="poi2 <= 53.0\nmse = 7290819909.3\nsamples = 16\nvalue = 565609.5"] ;
765 -> 766 ;
767 [label="mse = 0.0\nsamples = 1\nvalue = 310000.0"] ;
766 -> 767 ;
768 [label="poi12 <= 1.5\nmse = 4225208900.0\nsamples = 15\nvalue = 578390.0"] ;
766 -> 768 ;
769 [label="poi1 <= 100.5\nmse = 2891140138.4\nsamples = 12\nvalue = 561047.1"] ;
768 -> 769 ;
770 [label="gross_area <= 1042.0\nmse = 689337600.0\nsamples = 8\nvalue = 597380.0"] ;
769 -> 770 ;
771 [label="poi4 <= 2.5\nmse = 209500000.0\nsamples = 5\nvalue = 616500.0"] ;
770 -> 771 ;
772 [label="mse = 0.0\nsamples = 1\nvalue = 595000.0"] ;
771 -> 772 ;
773 [label="borough <= 3.5\nmse = 140460000.0\nsamples = 4\nvalue = 620800.0"] ;
771 -> 773 ;
774 [label="mse = 0.0\nsamples = 1\nvalue = 629500.0"] ;
773 -> 774 ;
775 [label="totalPoi <= 155.5\nmse = 150000000.0\nsamples = 3\nvalue = 615000.0"] ;
773 -> 775 ;
776 [label="mse = 225000000.0\nsamples = 2\nvalue = 615000.0"] ;
775 -> 776 ;
777 [label="mse = 0.0\nsamples = 1\nvalue = 615000.0"] ;
775 -> 777 ;
778 [label="numViolations <= 3.5\nmse = 38190000.0\nsamples = 3\nvalue = 568700.0"] ;
770 -> 778 ;
779 [label="mse = 0.0\nsamples = 1\nvalue = 558000.0"] ;
778 -> 779 ;
780 [label="poi1 <= 78.0\nmse = 35555.6\nsamples = 2\nvalue = 572266.7"] ;
778 -> 780 ;
781 [label="mse = 0.0\nsamples = 1\nvalue = 572000.0"] ;
780 -> 781 ;
782 [label="mse = 0.0\nsamples = 1\nvalue = 572400.0"] ;
780 -> 782 ;
783 [label="land_area <= 1478.5\nmse = 1456693877.6\nsamples = 4\nvalue = 509142.9"] ;
769 -> 783 ;
784 [label="mse = 0.0\nsamples = 1\nvalue = 450000.0"] ;
783 -> 784 ;
785 [label="numViolations <= 5.0\nmse = 80560000.0\nsamples = 3\nvalue = 532800.0"] ;
783 -> 785 ;
786 [label="mse = 0.0\nsamples = 1\nvalue = 515000.0"] ;
785 -> 786 ;
787 [label="numViolations <= 8.5\nmse = 1687500.0\nsamples = 2\nvalue = 537250.0"] ;
785 -> 787 ;
788 [label="mse = 0.0\nsamples = 1\nvalue = 538000.0"] ;
787 -> 788 ;
789 [label="mse = 0.0\nsamples = 1\nvalue = 535000.0"] ;
787 -> 789 ;
790 [label="poi6 <= 3.5\nmse = 422222222.2\nsamples = 3\nvalue = 676666.7"] ;
768 -> 790 ;
791 [label="mse = 0.0\nsamples = 1\nvalue = 650000.0"] ;
790 -> 791 ;
792 [label="numViolations <= 5.5\nmse = 100000000.0\nsamples = 2\nvalue = 690000.0"] ;
790 -> 792 ;
793 [label="mse = 0.0\nsamples = 1\nvalue = 700000.0"] ;
792 -> 793 ;
794 [label="mse = 0.0\nsamples = 1\nvalue = 680000.0"] ;
792 -> 794 ;
795 [label="roadWidth <= 8320.0\nmse = 4924034722.2\nsamples = 8\nvalue = 435583.3"] ;
765 -> 795 ;
796 [label="poi2 <= 291.5\nmse = 1998830578.5\nsamples = 7\nvalue = 418818.2"] ;
795 -> 796 ;
797 [label="poi2 <= 261.0\nmse = 144500000.0\nsamples = 2\nvalue = 352000.0"] ;
796 -> 797 ;
798 [label="mse = 0.0\nsamples = 1\nvalue = 335000.0"] ;
797 -> 798 ;
799 [label="mse = 0.0\nsamples = 1\nvalue = 360500.0"] ;
797 -> 799 ;
800 [label="gross_area <= 1000.0\nmse = 392109375.0\nsamples = 5\nvalue = 443875.0"] ;
796 -> 800 ;
801 [label="totalPoi <= 249.0\nmse = 72250000.0\nsamples = 2\nvalue = 413500.0"] ;
800 -> 801 ;
802 [label="mse = 0.0\nsamples = 1\nvalue = 405000.0"] ;
801 -> 802 ;
803 [label="mse = 0.0\nsamples = 1\nvalue = 422000.0"] ;
801 -> 803 ;
804 [label="year <= 1913.0\nmse = 88666666.7\nsamples = 3\nvalue = 454000.0"] ;
800 -> 804 ;
805 [label="mse = 0.0\nsamples = 1\nvalue = 467000.0"] ;
804 -> 805 ;
806 [label="type <= 0.5\nmse = 6250000.0\nsamples = 2\nvalue = 447500.0"] ;
804 -> 806 ;
807 [label="mse = 0.0\nsamples = 1\nvalue = 445000.0"] ;
806 -> 807 ;
808 [label="mse = 0.0\nsamples = 1\nvalue = 450000.0"] ;
806 -> 808 ;
809 [label="mse = 0.0\nsamples = 1\nvalue = 620000.0"] ;
795 -> 809 ;
810 [label="poi2 <= 312.5\nmse = 12507423469.4\nsamples = 9\nvalue = 363071.4"] ;
764 -> 810 ;
811 [label="poi6 <= 4.0\nmse = 7771876033.1\nsamples = 7\nvalue = 404818.2"] ;
810 -> 811 ;
812 [label="numRoads <= 186.5\nmse = 572222222.2\nsamples = 3\nvalue = 521666.7"] ;
811 -> 812 ;
813 [label="mse = 0.0\nsamples = 1\nvalue = 555000.0"] ;
812 -> 813 ;
814 [label="poi6 <= 1.5\nmse = 25000000.0\nsamples = 2\nvalue = 505000.0"] ;
812 -> 814 ;
815 [label="mse = 0.0\nsamples = 1\nvalue = 510000.0"] ;
814 -> 815 ;
816 [label="mse = 0.0\nsamples = 1\nvalue = 500000.0"] ;
814 -> 816 ;
817 [label="year <= 1955.0\nmse = 3431625000.0\nsamples = 4\nvalue = 361000.0"] ;
811 -> 817 ;
818 [label="gross_area <= 1384.5\nmse = 1609857142.9\nsamples = 3\nvalue = 344000.0"] ;
817 -> 818 ;
819 [label="numBuses <= 5.0\nmse = 440055555.6\nsamples = 2\nvalue = 329666.7"] ;
818 -> 819 ;
820 [label="mse = 0.0\nsamples = 1\nvalue = 344500.0"] ;
819 -> 820 ;
821 [label="mse = 0.0\nsamples = 1\nvalue = 300000.0"] ;
819 -> 821 ;
822 [label="mse = 0.0\nsamples = 1\nvalue = 430000.0"] ;
818 -> 822 ;
823 [label="mse = 0.0\nsamples = 1\nvalue = 480000.0"] ;
817 -> 823 ;
824 [label="poi8 <= 0.5\nmse = 50000000.0\nsamples = 2\nvalue = 210000.0"] ;
810 -> 824 ;
825 [label="mse = 0.0\nsamples = 1\nvalue = 215000.0"] ;
824 -> 825 ;
826 [label="mse = 0.0\nsamples = 1\nvalue = 200000.0"] ;
824 -> 826 ;
827 [label="land_area <= 3522.0\nmse = 24881029927.3\nsamples = 160\nvalue = 609394.8"] ;
763 -> 827 ;
828 [label="gross_area <= 544.0\nmse = 23067694186.6\nsamples = 155\nvalue = 617547.7"] ;
827 -> 828 ;
829 [label="mse = 0.0\nsamples = 1\nvalue = 160000.0"] ;
828 -> 829 ;
830 [label="poi9 <= 3.5\nmse = 21417530903.9\nsamples = 154\nvalue = 621561.3"] ;
828 -> 830 ;
831 [label="poi4 <= 1.5\nmse = 20241691135.6\nsamples = 141\nvalue = 611321.1"] ;
830 -> 831 ;
832 [label="poi2 <= 242.0\nmse = 29956888294.7\nsamples = 19\nvalue = 521676.1"] ;
831 -> 832 ;
833 [label="poi11 <= 0.5\nmse = 15202908835.8\nsamples = 16\nvalue = 573270.4"] ;
832 -> 833 ;
834 [label="gross_area <= 1222.0\nmse = 8886481481.0\nsamples = 7\nvalue = 676250.9"] ;
833 -> 834 ;
835 [label="poi3 <= 4.0\nmse = 6271555555.6\nsamples = 4\nvalue = 609333.3"] ;
834 -> 835 ;
836 [label="mse = 0.0\nsamples = 1\nvalue = 750000.0"] ;
835 -> 836 ;
837 [label="gross_area <= 1190.0\nmse = 2776960000.0\nsamples = 3\nvalue = 581200.0"] ;
835 -> 837 ;
838 [label="numViolations <= 7.0\nmse = 270750000.0\nsamples = 2\nvalue = 606500.0"] ;
837 -> 838 ;
839 [label="mse = 0.0\nsamples = 1\nvalue = 597000.0"] ;
838 -> 839 ;
840 [label="mse = 0.0\nsamples = 1\nvalue = 635000.0"] ;
838 -> 840 ;
841 [label="mse = 0.0\nsamples = 1\nvalue = 480000.0"] ;
837 -> 841 ;
842 [label="year <= 1940.0\nmse = 202573056.0\nsamples = 3\nvalue = 756552.0"] ;
834 -> 842 ;
843 [label="poi10 <= 1.0\nmse = 313600.0\nsamples = 2\nvalue = 749440.0"] ;
842 -> 843 ;
844 [label="mse = 0.0\nsamples = 1\nvalue = 750000.0"] ;
843 -> 844 ;
845 [label="mse = 0.0\nsamples = 1\nvalue = 748880.0"] ;
843 -> 845 ;
846 [label="mse = 0.0\nsamples = 1\nvalue = 785000.0"] ;
842 -> 846 ;
847 [label="land_area <= 2316.5\nmse = 5286372449.0\nsamples = 9\nvalue = 492357.1"] ;
833 -> 847 ;
848 [label="numBuses <= 7.0\nmse = 5878571428.6\nsamples = 5\nvalue = 535000.0"] ;
847 -> 848 ;
849 [label="poi1 <= 4.5\nmse = 6317187500.0\nsamples = 4\nvalue = 493750.0"] ;
848 -> 849 ;
850 [label="mse = 0.0\nsamples = 1\nvalue = 570000.0"] ;
849 -> 850 ;
851 [label="gross_area <= 966.0\nmse = 5838888888.9\nsamples = 3\nvalue = 468333.3"] ;
849 -> 851 ;
852 [label="mse = 0.0\nsamples = 1\nvalue = 430000.0"] ;
851 -> 852 ;
853 [label="mse = 7656250000.0\nsamples = 2\nvalue = 487500.0"] ;
851 -> 853 ;
854 [label="mse = 0.0\nsamples = 1\nvalue = 590000.0"] ;
848 -> 854 ;
855 [label="poi5 <= 3.0\nmse = 1057346938.8\nsamples = 4\nvalue = 449714.3"] ;
847 -> 855 ;
856 [label="poi5 <= 1.5\nmse = 40000000.0\nsamples = 3\nvalue = 470000.0"] ;
855 -> 856 ;
857 [label="mse = 0.0\nsamples = 1\nvalue = 480000.0"] ;
856 -> 857 ;
858 [label="mse = 18750000.0\nsamples = 2\nvalue = 467500.0"] ;
856 -> 858 ;
859 [label="mse = 0.0\nsamples = 1\nvalue = 399000.0"] ;
855 -> 859 ;
860 [label="poi2 <= 283.0\nmse = 34125530000.0\nsamples = 3\nvalue = 306700.0"] ;
832 -> 860 ;
861 [label="poi1 <= 66.5\nmse = 940502400.0\nsamples = 2\nvalue = 225040.0"] ;
860 -> 861 ;
862 [label="mse = 0.0\nsamples = 1\nvalue = 200000.0"] ;
861 -> 862 ;
863 [label="mse = 0.0\nsamples = 1\nvalue = 262600.0"] ;
861 -> 863 ;
864 [label="mse = 0.0\nsamples = 1\nvalue = 715000.0"] ;
860 -> 864 ;
865 [label="poi8 <= 2.5\nmse = 16946145766.7\nsamples = 122\nvalue = 626759.9"] ;
831 -> 865 ;
866 [label="poi3 <= 14.5\nmse = 15646235825.8\nsamples = 121\nvalue = 623976.4"] ;
865 -> 866 ;
867 [label="totalPoi <= 299.5\nmse = 13455096385.7\nsamples = 81\nvalue = 651840.6"] ;
866 -> 867 ;
868 [label="numRoads <= 247.5\nmse = 11442591333.1\nsamples = 80\nvalue = 656030.9"] ;
867 -> 868 ;
869 [label="poi9 <= 2.5\nmse = 9631901417.3\nsamples = 79\nvalue = 661811.1"] ;
868 -> 869 ;
870 [label="gross_area <= 1139.5\nmse = 8963016911.0\nsamples = 78\nvalue = 658049.2"] ;
869 -> 870 ;
871 [label="year <= 1932.5\nmse = 3815058367.3\nsamples = 23\nvalue = 611885.7"] ;
870 -> 871 ;
872 [label="poi1 <= 105.5\nmse = 2478402366.9\nsamples = 9\nvalue = 561538.5"] ;
871 -> 872 ;
873 [label="gross_area <= 1110.0\nmse = 1872839506.2\nsamples = 6\nvalue = 582222.2"] ;
872 -> 873 ;
874 [label="type <= 0.5\nmse = 724000000.0\nsamples = 4\nvalue = 616000.0"] ;
873 -> 874 ;
875 [label="roadWidth <= 6894.0\nmse = 300000000.0\nsamples = 3\nvalue = 605000.0"] ;
874 -> 875 ;
876 [label="mse = 0.0\nsamples = 1\nvalue = 575000.0"] ;
875 -> 876 ;
877 [label="mse = 0.0\nsamples = 2\nvalue = 615000.0"] ;
875 -> 877 ;
878 [label="mse = 0.0\nsamples = 1\nvalue = 660000.0"] ;
874 -> 878 ;
879 [label="type <= 0.5\nmse = 100000000.0\nsamples = 2\nvalue = 540000.0"] ;
873 -> 879 ;
880 [label="mse = 0.0\nsamples = 1\nvalue = 530000.0"] ;
879 -> 880 ;
881 [label="mse = 0.0\nsamples = 1\nvalue = 550000.0"] ;
879 -> 881 ;
882 [label="year <= 1922.5\nmse = 712500000.0\nsamples = 3\nvalue = 515000.0"] ;
872 -> 882 ;
883 [label="mse = 0.0\nsamples = 1\nvalue = 470000.0"] ;
882 -> 883 ;
884 [label="poi1 <= 132.5\nmse = 50000000.0\nsamples = 2\nvalue = 530000.0"] ;
882 -> 884 ;
885 [label="mse = 0.0\nsamples = 1\nvalue = 540000.0"] ;
884 -> 885 ;
886 [label="mse = 0.0\nsamples = 1\nvalue = 525000.0"] ;
884 -> 886 ;
887 [label="roadWidth <= 6580.0\nmse = 2221935950.4\nsamples = 14\nvalue = 641636.4"] ;
871 -> 887 ;
888 [label="numRoads <= 181.0\nmse = 3975166666.7\nsamples = 4\nvalue = 594500.0"] ;
887 -> 888 ;
889 [label="mse = 0.0\nsamples = 1\nvalue = 678000.0"] ;
888 -> 889 ;
890 [label="year <= 1942.5\nmse = 733562500.0\nsamples = 3\nvalue = 552750.0"] ;
888 -> 890 ;
891 [label="mse = 0.0\nsamples = 1\nvalue = 579500.0"] ;
890 -> 891 ;
892 [label="totalPoi <= 65.0\nmse = 36000000.0\nsamples = 2\nvalue = 526000.0"] ;
890 -> 892 ;
893 [label="mse = 0.0\nsamples = 1\nvalue = 532000.0"] ;
892 -> 893 ;
894 [label="mse = 0.0\nsamples = 1\nvalue = 520000.0"] ;
892 -> 894 ;
895 [label="poi2 <= 258.5\nmse = 418839843.8\nsamples = 10\nvalue = 659312.5"] ;
887 -> 895 ;
896 [label="poi4 <= 6.0\nmse = 270739795.9\nsamples = 9\nvalue = 654214.3"] ;
895 -> 896 ;
897 [label="poi5 <= 0.5\nmse = 173289940.8\nsamples = 8\nvalue = 651307.7"] ;
896 -> 897 ;
898 [label="totalPoi <= 138.0\nmse = 101802469.1\nsamples = 6\nvalue = 644555.6"] ;
897 -> 898 ;
899 [label="poi4 <= 3.0\nmse = 6250000.0\nsamples = 2\nvalue = 627500.0"] ;
898 -> 899 ;
900 [label="mse = 0.0\nsamples = 1\nvalue = 625000.0"] ;
899 -> 900 ;
901 [label="mse = 0.0\nsamples = 1\nvalue = 630000.0"] ;
899 -> 901 ;
902 [label="poi2 <= 229.0\nmse = 22244898.0\nsamples = 4\nvalue = 649428.6"] ;
898 -> 902 ;
903 [label="poi11 <= 0.5\nmse = 4222222.2\nsamples = 3\nvalue = 647666.7"] ;
902 -> 903 ;
904 [label="poi7 <= 1.0\nmse = 1000000.0\nsamples = 2\nvalue = 649000.0"] ;
903 -> 904 ;
905 [label="mse = 0.0\nsamples = 1\nvalue = 650000.0"] ;
904 -> 905 ;
906 [label="mse = 0.0\nsamples = 1\nvalue = 648000.0"] ;
904 -> 906 ;
907 [label="mse = 0.0\nsamples = 1\nvalue = 645000.0"] ;
903 -> 907 ;
908 [label="mse = 0.0\nsamples = 1\nvalue = 660000.0"] ;
902 -> 908 ;
909 [label="numRoads <= 207.5\nmse = 750000.0\nsamples = 2\nvalue = 666500.0"] ;
897 -> 909 ;
910 [label="mse = 0.0\nsamples = 1\nvalue = 665000.0"] ;
909 -> 910 ;
911 [label="mse = 0.0\nsamples = 1\nvalue = 667000.0"] ;
909 -> 911 ;
912 [label="mse = 0.0\nsamples = 1\nvalue = 692000.0"] ;
896 -> 912 ;
913 [label="mse = 0.0\nsamples = 1\nvalue = 695000.0"] ;
895 -> 913 ;
914 [label="numRoads <= 180.0\nmse = 9868721253.0\nsamples = 55\nvalue = 677996.4"] ;
870 -> 914 ;
915 [label="numRoads <= 175.0\nmse = 3370833333.3\nsamples = 8\nvalue = 596000.0"] ;
914 -> 915 ;
916 [label="poi6 <= 1.0\nmse = 18750000.0\nsamples = 3\nvalue = 657500.0"] ;
915 -> 916 ;
917 [label="mse = 0.0\nsamples = 1\nvalue = 650000.0"] ;
916 -> 917 ;
918 [label="mse = 0.0\nsamples = 2\nvalue = 660000.0"] ;
916 -> 918 ;
919 [label="roadWidth <= 6116.0\nmse = 2210187500.0\nsamples = 5\nvalue = 565250.0"] ;
915 -> 919 ;
920 [label="year <= 1957.0\nmse = 71187500.0\nsamples = 3\nvalue = 519250.0"] ;
919 -> 920 ;
921 [label="totalPoi <= 207.0\nmse = 6250000.0\nsamples = 2\nvalue = 527500.0"] ;
920 -> 921 ;
922 [label="mse = 0.0\nsamples = 1\nvalue = 530000.0"] ;
921 -> 922 ;
923 [label="mse = 0.0\nsamples = 1\nvalue = 525000.0"] ;
921 -> 923 ;
924 [label="mse = 0.0\nsamples = 1\nvalue = 511000.0"] ;
920 -> 924 ;
925 [label="gross_area <= 1290.0\nmse = 117187500.0\nsamples = 2\nvalue = 611250.0"] ;
919 -> 925 ;
926 [label="mse = 0.0\nsamples = 1\nvalue = 630000.0"] ;
925 -> 926 ;
927 [label="mse = 0.0\nsamples = 1\nvalue = 605000.0"] ;
925 -> 927 ;
928 [label="land_area <= 3471.0\nmse = 9626145710.2\nsamples = 47\nvalue = 692256.6"] ;
914 -> 928 ;
929 [label="land_area <= 3133.5\nmse = 8446188296.0\nsamples = 45\nvalue = 685457.4"] ;
928 -> 929 ;
930 [label="year <= 1965.0\nmse = 5068436279.8\nsamples = 40\nvalue = 698308.3"] ;
929 -> 930 ;
931 [label="roadWidth <= 7530.0\nmse = 4713229140.3\nsamples = 38\nvalue = 703931.9"] ;
930 -> 931 ;
932 [label="numRoads <= 222.0\nmse = 3232621093.8\nsamples = 23\nvalue = 723437.5"] ;
931 -> 932 ;
933 [label="land_area <= 3050.0\nmse = 2212249702.7\nsamples = 21\nvalue = 712517.2"] ;
932 -> 933 ;
934 [label="poi2 <= 334.0\nmse = 1832982167.4\nsamples = 19\nvalue = 706407.4"] ;
933 -> 934 ;
935 [label="year <= 1957.5\nmse = 1407751479.3\nsamples = 18\nvalue = 710692.3"] ;
934 -> 935 ;
936 [label="totalPoi <= 259.5\nmse = 1096671487.6\nsamples = 16\nvalue = 719681.8"] ;
935 -> 936 ;
937 [label="year <= 1953.0\nmse = 827074829.9\nsamples = 15\nvalue = 715857.1"] ;
936 -> 937 ;
938 [label="roadWidth <= 6498.0\nmse = 659793209.9\nsamples = 12\nvalue = 722388.9"] ;
937 -> 938 ;
939 [label="year <= 1940.0\nmse = 476204081.6\nsamples = 5\nvalue = 699714.3"] ;
938 -> 939 ;
940 [label="poi8 <= 0.5\nmse = 63040000.0\nsamples = 3\nvalue = 687600.0"] ;
939 -> 940 ;
941 [label="gross_area <= 1247.0\nmse = 4687500.0\nsamples = 2\nvalue = 683750.0"] ;
940 -> 941 ;
942 [label="mse = 0.0\nsamples = 1\nvalue = 680000.0"] ;
941 -> 942 ;
943 [label="mse = 0.0\nsamples = 1\nvalue = 685000.0"] ;
941 -> 943 ;
944 [label="mse = 0.0\nsamples = 1\nvalue = 703000.0"] ;
940 -> 944 ;
945 [label="totalPoi <= 199.0\nmse = 225000000.0\nsamples = 2\nvalue = 730000.0"] ;
939 -> 945 ;
946 [label="mse = 0.0\nsamples = 1\nvalue = 715000.0"] ;
945 -> 946 ;
947 [label="mse = 0.0\nsamples = 1\nvalue = 745000.0"] ;
945 -> 947 ;
948 [label="totalPoi <= 139.0\nmse = 241239669.4\nsamples = 7\nvalue = 736818.2"] ;
938 -> 948 ;
949 [label="mse = 0.0\nsamples = 1\nvalue = 780000.0"] ;
948 -> 949 ;
950 [label="poi3 <= 7.0\nmse = 60250000.0\nsamples = 6\nvalue = 732500.0"] ;
948 -> 950 ;
951 [label="totalPoi <= 191.0\nmse = 18750000.0\nsamples = 2\nvalue = 740500.0"] ;
950 -> 951 ;
952 [label="mse = 0.0\nsamples = 1\nvalue = 748000.0"] ;
951 -> 952 ;
953 [label="mse = 0.0\nsamples = 1\nvalue = 738000.0"] ;
951 -> 953 ;
954 [label="poi5 <= 0.5\nmse = 16805555.6\nsamples = 4\nvalue = 727166.7"] ;
950 -> 954 ;
955 [label="mse = 0.0\nsamples = 2\nvalue = 730000.0"] ;
954 -> 955 ;
956 [label="gross_area <= 1318.0\nmse = 2250000.0\nsamples = 2\nvalue = 721500.0"] ;
954 -> 956 ;
957 [label="mse = 0.0\nsamples = 1\nvalue = 723000.0"] ;
956 -> 957 ;
958 [label="mse = 0.0\nsamples = 1\nvalue = 720000.0"] ;
956 -> 958 ;
959 [label="roadWidth <= 6652.0\nmse = 38888888.9\nsamples = 3\nvalue = 676666.7"] ;
937 -> 959 ;
960 [label="mse = 0.0\nsamples = 1\nvalue = 685000.0"] ;
959 -> 960 ;
961 [label="numFelonies <= 86.5\nmse = 6250000.0\nsamples = 2\nvalue = 672500.0"] ;
959 -> 961 ;
962 [label="mse = 0.0\nsamples = 1\nvalue = 670000.0"] ;
961 -> 962 ;
963 [label="mse = 0.0\nsamples = 1\nvalue = 675000.0"] ;
961 -> 963 ;
964 [label="mse = 0.0\nsamples = 1\nvalue = 800000.0"] ;
936 -> 964 ;
965 [label="roadWidth <= 6228.0\nmse = 229687500.0\nsamples = 2\nvalue = 661250.0"] ;
935 -> 965 ;
966 [label="mse = 0.0\nsamples = 1\nvalue = 635000.0"] ;
965 -> 966 ;
967 [label="mse = 0.0\nsamples = 1\nvalue = 670000.0"] ;
965 -> 967 ;
968 [label="mse = 0.0\nsamples = 1\nvalue = 595000.0"] ;
934 -> 968 ;
969 [label="totalPoi <= 201.0\nmse = 25000000.0\nsamples = 2\nvalue = 795000.0"] ;
933 -> 969 ;
970 [label="mse = 0.0\nsamples = 1\nvalue = 790000.0"] ;
969 -> 970 ;
971 [label="mse = 0.0\nsamples = 1\nvalue = 800000.0"] ;
969 -> 971 ;
972 [label="poi7 <= 0.5\nmse = 800000000.0\nsamples = 2\nvalue = 829000.0"] ;
932 -> 972 ;
973 [label="mse = 0.0\nsamples = 1\nvalue = 809000.0"] ;
972 -> 973 ;
974 [label="mse = 0.0\nsamples = 1\nvalue = 869000.0"] ;
972 -> 974 ;
975 [label="poi2 <= 455.5\nmse = 5503697105.8\nsamples = 15\nvalue = 677924.5"] ;
931 -> 975 ;
976 [label="land_area <= 1900.0\nmse = 4396530038.3\nsamples = 13\nvalue = 662866.1"] ;
975 -> 976 ;
977 [label="roadWidth <= 7788.5\nmse = 12500222222.2\nsamples = 3\nvalue = 590333.3"] ;
976 -> 977 ;
978 [label="mse = 0.0\nsamples = 1\nvalue = 441000.0"] ;
977 -> 978 ;
979 [label="numRoads <= 238.5\nmse = 2025000000.0\nsamples = 2\nvalue = 665000.0"] ;
977 -> 979 ;
980 [label="mse = 0.0\nsamples = 1\nvalue = 710000.0"] ;
979 -> 980 ;
981 [label="mse = 0.0\nsamples = 1\nvalue = 620000.0"] ;
979 -> 981 ;
982 [label="numRoads <= 231.0\nmse = 2022942150.8\nsamples = 10\nvalue = 674954.9"] ;
976 -> 982 ;
983 [label="numRoads <= 225.5\nmse = 2544000000.0\nsamples = 3\nvalue = 634000.0"] ;
982 -> 983 ;
984 [label="mse = 0.0\nsamples = 1\nvalue = 730000.0"] ;
983 -> 984 ;
985 [label="poi2 <= 226.0\nmse = 300000000.0\nsamples = 2\nvalue = 610000.0"] ;
983 -> 985 ;
986 [label="mse = 0.0\nsamples = 1\nvalue = 620000.0"] ;
985 -> 986 ;
987 [label="mse = 0.0\nsamples = 1\nvalue = 580000.0"] ;
985 -> 987 ;
988 [label="type <= 0.5\nmse = 929297042.2\nsamples = 7\nvalue = 690706.8"] ;
982 -> 988 ;
989 [label="poi1 <= 99.5\nmse = 538152865.8\nsamples = 5\nvalue = 708648.5"] ;
988 -> 989 ;
990 [label="year <= 1925.0\nmse = 227828836.0\nsamples = 2\nvalue = 745094.0"] ;
989 -> 990 ;
991 [label="mse = 0.0\nsamples = 1\nvalue = 730000.0"] ;
990 -> 991 ;
992 [label="mse = 0.0\nsamples = 1\nvalue = 760188.0"] ;
990 -> 992 ;
993 [label="gross_area <= 1365.0\nmse = 51250000.0\nsamples = 3\nvalue = 696500.0"] ;
989 -> 993 ;
994 [label="numRoads <= 234.5\nmse = 22687500.0\nsamples = 2\nvalue = 692250.0"] ;
993 -> 994 ;
995 [label="mse = 0.0\nsamples = 1\nvalue = 684000.0"] ;
994 -> 995 ;
996 [label="mse = 0.0\nsamples = 1\nvalue = 695000.0"] ;
994 -> 996 ;
997 [label="mse = 0.0\nsamples = 1\nvalue = 705000.0"] ;
993 -> 997 ;
998 [label="poi1 <= 116.5\nmse = 216000000.0\nsamples = 2\nvalue = 662000.0"] ;
988 -> 998 ;
999 [label="mse = 0.0\nsamples = 1\nvalue = 650000.0"] ;
998 -> 999 ;
1000 [label="mse = 0.0\nsamples = 1\nvalue = 680000.0"] ;
998 -> 1000 ;
1001 [label="poi1 <= 120.0\nmse = 555555555.6\nsamples = 2\nvalue = 783333.3"] ;
975 -> 1001 ;
1002 [label="mse = 0.0\nsamples = 1\nvalue = 800000.0"] ;
1001 -> 1002 ;
1003 [label="mse = 0.0\nsamples = 1\nvalue = 750000.0"] ;
1001 -> 1003 ;
1004 [label="mse = 88888888.9\nsamples = 2\nvalue = 593333.3"] ;
930 -> 1004 ;
1005 [label="gross_area <= 1300.0\nmse = 23791836734.7\nsamples = 5\nvalue = 577142.9"] ;
929 -> 1005 ;
1006 [label="numRoads <= 202.5\nmse = 2320000000.0\nsamples = 3\nvalue = 670000.0"] ;
1005 -> 1006 ;
1007 [label="poi5 <= 0.5\nmse = 1088888888.9\nsamples = 2\nvalue = 703333.3"] ;
1006 -> 1007 ;
1008 [label="mse = 0.0\nsamples = 1\nvalue = 750000.0"] ;
1007 -> 1008 ;
1009 [label="mse = 0.0\nsamples = 1\nvalue = 680000.0"] ;
1007 -> 1009 ;
1010 [label="mse = 0.0\nsamples = 1\nvalue = 620000.0"] ;
1006 -> 1010 ;
1011 [label="numRoads <= 189.5\nmse = 2025000000.0\nsamples = 2\nvalue = 345000.0"] ;
1005 -> 1011 ;
1012 [label="mse = 0.0\nsamples = 1\nvalue = 300000.0"] ;
1011 -> 1012 ;
1013 [label="mse = 0.0\nsamples = 1\nvalue = 390000.0"] ;
1011 -> 1013 ;
1014 [label="roadWidth <= 7603.5\nmse = 12192972800.0\nsamples = 2\nvalue = 841840.0"] ;
928 -> 1014 ;
1015 [label="mse = 0.0\nsamples = 1\nvalue = 763760.0"] ;
1014 -> 1015 ;
1016 [label="mse = 0.0\nsamples = 1\nvalue = 998000.0"] ;
1014 -> 1016 ;
1017 [label="mse = 0.0\nsamples = 1\nvalue = 880000.0"] ;
869 -> 1017 ;
1018 [label="mse = 0.0\nsamples = 1\nvalue = 315000.0"] ;
868 -> 1018 ;
1019 [label="mse = 0.0\nsamples = 1\nvalue = 149000.0"] ;
867 -> 1019 ;
1020 [label="poi10 <= 4.5\nmse = 15218521590.6\nsamples = 40\nvalue = 565846.1"] ;
866 -> 1020 ;
1021 [label="land_area <= 1816.5\nmse = 12497024424.4\nsamples = 39\nvalue = 558668.0"] ;
1020 -> 1021 ;
1022 [label="numViolations <= 7.0\nmse = 14486482248.5\nsamples = 11\nvalue = 473192.3"] ;
1021 -> 1022 ;
1023 [label="year <= 1922.5\nmse = 8722549586.8\nsamples = 10\nvalue = 509136.4"] ;
1022 -> 1023 ;
1024 [label="mse = 0.0\nsamples = 1\nvalue = 294500.0"] ;
1023 -> 1024 ;
1025 [label="poi3 <= 16.5\nmse = 4527240000.0\nsamples = 9\nvalue = 530600.0"] ;
1023 -> 1025 ;
1026 [label="type <= 0.5\nmse = 1266666666.7\nsamples = 3\nvalue = 470000.0"] ;
1025 -> 1026 ;
1027 [label="roadWidth <= 7538.5\nmse = 25000000.0\nsamples = 2\nvalue = 445000.0"] ;
1026 -> 1027 ;
1028 [label="mse = 0.0\nsamples = 1\nvalue = 440000.0"] ;
1027 -> 1028 ;
1029 [label="mse = 0.0\nsamples = 1\nvalue = 450000.0"] ;
1027 -> 1029 ;
1030 [label="mse = 0.0\nsamples = 1\nvalue = 520000.0"] ;
1026 -> 1030 ;
1031 [label="totalPoi <= 226.0\nmse = 3676244898.0\nsamples = 6\nvalue = 556571.4"] ;
1025 -> 1031 ;
1032 [label="totalPoi <= 185.5\nmse = 2675000000.0\nsamples = 3\nvalue = 575000.0"] ;
1031 -> 1032 ;
1033 [label="mse = 0.0\nsamples = 1\nvalue = 590000.0"] ;
1032 -> 1033 ;
1034 [label="mse = 4900000000.0\nsamples = 2\nvalue = 560000.0"] ;
1032 -> 1034 ;
1035 [label="numRoads <= 231.0\nmse = 3954666666.7\nsamples = 3\nvalue = 532000.0"] ;
1031 -> 1035 ;
1036 [label="mse = 0.0\nsamples = 1\nvalue = 530000.0"] ;
1035 -> 1036 ;
1037 [label="mse = 5929000000.0\nsamples = 2\nvalue = 533000.0"] ;
1035 -> 1037 ;
1038 [label="mse = 0.0\nsamples = 1\nvalue = 275500.0"] ;
1022 -> 1038 ;
1039 [label="year <= 1917.5\nmse = 9112838841.4\nsamples = 28\nvalue = 583922.2"] ;
1021 -> 1039 ;
1040 [label="poi10 <= 1.5\nmse = 672222222.2\nsamples = 2\nvalue = 393333.3"] ;
1039 -> 1040 ;
1041 [label="mse = 0.0\nsamples = 1\nvalue = 430000.0"] ;
1040 -> 1041 ;
1042 [label="mse = 0.0\nsamples = 1\nvalue = 375000.0"] ;
1040 -> 1042 ;
1043 [label="poi11 <= 0.5\nmse = 6878106287.9\nsamples = 26\nvalue = 597867.7"] ;
1039 -> 1043 ;
1044 [label="poi2 <= 423.0\nmse = 5949311339.2\nsamples = 18\nvalue = 633173.1"] ;
1043 -> 1044 ;
1045 [label="totalPoi <= 284.0\nmse = 831250000.0\nsamples = 4\nvalue = 707500.0"] ;
1044 -> 1045 ;
1046 [label="totalPoi <= 228.0\nmse = 192187500.0\nsamples = 3\nvalue = 688750.0"] ;
1045 -> 1046 ;
1047 [label="numViolations <= 5.0\nmse = 6250000.0\nsamples = 2\nvalue = 702500.0"] ;
1046 -> 1047 ;
1048 [label="mse = 0.0\nsamples = 1\nvalue = 705000.0"] ;
1047 -> 1048 ;
1049 [label="mse = 0.0\nsamples = 1\nvalue = 700000.0"] ;
1047 -> 1049 ;
1050 [label="mse = 0.0\nsamples = 1\nvalue = 675000.0"] ;
1046 -> 1050 ;
1051 [label="mse = 0.0\nsamples = 1\nvalue = 745000.0"] ;
1045 -> 1051 ;
1052 [label="numRoads <= 235.0\nmse = 5382213429.7\nsamples = 14\nvalue = 611936.9"] ;
1044 -> 1052 ;
1053 [label="gross_area <= 1006.0\nmse = 3505312500.0\nsamples = 10\nvalue = 587750.0"] ;
1052 -> 1053 ;
1054 [label="numViolations <= 12.5\nmse = 200000000.0\nsamples = 2\nvalue = 660000.0"] ;
1053 -> 1054 ;
1055 [label="mse = 0.0\nsamples = 1\nvalue = 640000.0"] ;
1054 -> 1055 ;
1056 [label="mse = 0.0\nsamples = 1\nvalue = 670000.0"] ;
1054 -> 1056 ;
1057 [label="poi12 <= 0.5\nmse = 2785455621.3\nsamples = 8\nvalue = 571076.9"] ;
1053 -> 1057 ;
1058 [label="poi6 <= 5.5\nmse = 292187500.0\nsamples = 3\nvalue = 533750.0"] ;
1057 -> 1058 ;
1059 [label="gross_area <= 1256.0\nmse = 56250000.0\nsamples = 2\nvalue = 517500.0"] ;
1058 -> 1059 ;
1060 [label="mse = 0.0\nsamples = 1\nvalue = 525000.0"] ;
1059 -> 1060 ;
1061 [label="mse = 0.0\nsamples = 1\nvalue = 510000.0"] ;
1059 -> 1061 ;
1062 [label="mse = 0.0\nsamples = 1\nvalue = 550000.0"] ;
1058 -> 1062 ;
1063 [label="totalPoi <= 251.0\nmse = 2999111111.1\nsamples = 5\nvalue = 587666.7"] ;
1057 -> 1063 ;
1064 [label="mse = 0.0\nsamples = 1\nvalue = 655000.0"] ;
1063 -> 1064 ;
1065 [label="land_area <= 2037.5\nmse = 2736437500.0\nsamples = 4\nvalue = 579250.0"] ;
1063 -> 1065 ;
1066 [label="mse = 0.0\nsamples = 1\nvalue = 585000.0"] ;
1065 -> 1066 ;
1067 [label="poi6 <= 10.5\nmse = 4346560000.0\nsamples = 3\nvalue = 575800.0"] ;
1065 -> 1067 ;
1068 [label="mse = 0.0\nsamples = 1\nvalue = 569000.0"] ;
1067 -> 1068 ;
1069 [label="mse = 5418750000.0\nsamples = 2\nvalue = 577500.0"] ;
1067 -> 1069 ;
1070 [label="gross_area <= 1116.0\nmse = 3525810900.0\nsamples = 4\nvalue = 689335.0"] ;
1052 -> 1070 ;
1071 [label="mse = 0.0\nsamples = 1\nvalue = 582475.0"] ;
1070 -> 1071 ;
1072 [label="numViolations <= 4.0\nmse = 838807500.0\nsamples = 3\nvalue = 716050.0"] ;
1070 -> 1072 ;
1073 [label="mse = 0.0\nsamples = 1\nvalue = 690000.0"] ;
1072 -> 1073 ;
1074 [label="poi10 <= 0.5\nmse = 320410000.0\nsamples = 2\nvalue = 742100.0"] ;
1072 -> 1074 ;
1075 [label="mse = 0.0\nsamples = 1\nvalue = 724200.0"] ;
1074 -> 1075 ;
1076 [label="mse = 0.0\nsamples = 1\nvalue = 760000.0"] ;
1074 -> 1076 ;
1077 [label="roadWidth <= 7492.0\nmse = 1629308826.5\nsamples = 8\nvalue = 529778.6"] ;
1043 -> 1077 ;
1078 [label="borough <= 3.5\nmse = 566139171.6\nsamples = 7\nvalue = 538992.3"] ;
1077 -> 1078 ;
1079 [label="poi4 <= 4.5\nmse = 289468900.0\nsamples = 5\nvalue = 528890.0"] ;
1078 -> 1079 ;
1080 [label="mse = 0.0\nsamples = 1\nvalue = 550000.0"] ;
1079 -> 1080 ;
1081 [label="numRoads <= 199.5\nmse = 222576093.8\nsamples = 4\nvalue = 523612.5"] ;
1079 -> 1081 ;
1082 [label="mse = 270668888.9\nsamples = 2\nvalue = 526633.3"] ;
1081 -> 1082 ;
1083 [label="mse = 184960000.0\nsamples = 2\nvalue = 521800.0"] ;
1081 -> 1083 ;
1084 [label="poi11 <= 1.5\nmse = 14222222.2\nsamples = 2\nvalue = 572666.7"] ;
1078 -> 1084 ;
1085 [label="mse = 0.0\nsamples = 1\nvalue = 578000.0"] ;
1084 -> 1085 ;
1086 [label="mse = 0.0\nsamples = 1\nvalue = 570000.0"] ;
1084 -> 1086 ;
1087 [label="mse = 0.0\nsamples = 1\nvalue = 410000.0"] ;
1077 -> 1087 ;
1088 [label="mse = 0.0\nsamples = 1\nvalue = 975000.0"] ;
1020 -> 1088 ;
1089 [label="mse = 0.0\nsamples = 1\nvalue = 1125000.0"] ;
865 -> 1089 ;
1090 [label="gross_area <= 1272.0\nmse = 18556018708.5\nsamples = 13\nvalue = 748660.6"] ;
830 -> 1090 ;
1091 [label="land_area <= 2054.0\nmse = 17147090000.0\nsamples = 8\nvalue = 821900.0"] ;
1090 -> 1091 ;
1092 [label="numBuses <= 5.0\nmse = 24442560000.0\nsamples = 3\nvalue = 885200.0"] ;
1091 -> 1092 ;
1093 [label="mse = 39200000000.0\nsamples = 2\nvalue = 910000.0"] ;
1092 -> 1093 ;
1094 [label="mse = 0.0\nsamples = 1\nvalue = 848000.0"] ;
1092 -> 1094 ;
1095 [label="land_area <= 2342.0\nmse = 1837840000.0\nsamples = 5\nvalue = 758600.0"] ;
1091 -> 1095 ;
1096 [label="land_area <= 2312.5\nmse = 56250000.0\nsamples = 2\nvalue = 707500.0"] ;
1095 -> 1096 ;
1097 [label="mse = 0.0\nsamples = 1\nvalue = 700000.0"] ;
1096 -> 1097 ;
1098 [label="mse = 0.0\nsamples = 1\nvalue = 715000.0"] ;
1096 -> 1098 ;
1099 [label="totalPoi <= 233.5\nmse = 124222222.2\nsamples = 3\nvalue = 792666.7"] ;
1095 -> 1099 ;
1100 [label="poi8 <= 0.5\nmse = 25000000.0\nsamples = 2\nvalue = 800000.0"] ;
1099 -> 1100 ;
1101 [label="mse = 0.0\nsamples = 1\nvalue = 805000.0"] ;
1100 -> 1101 ;
1102 [label="mse = 0.0\nsamples = 1\nvalue = 795000.0"] ;
1100 -> 1102 ;
1103 [label="mse = 0.0\nsamples = 1\nvalue = 778000.0"] ;
1099 -> 1103 ;
1104 [label="poi2 <= 373.5\nmse = 1958938413.3\nsamples = 5\nvalue = 644032.9"] ;
1090 -> 1104 ;
1105 [label="mse = 0.0\nsamples = 1\nvalue = 705365.0"] ;
1104 -> 1105 ;
1106 [label="poi6 <= 1.0\nmse = 636000000.0\nsamples = 4\nvalue = 619500.0"] ;
1104 -> 1106 ;
1107 [label="mse = 0.0\nsamples = 1\nvalue = 575000.0"] ;
1106 -> 1107 ;
1108 [label="numRoads <= 213.0\nmse = 176171875.0\nsamples = 3\nvalue = 630625.0"] ;
1106 -> 1108 ;
1109 [label="year <= 1930.0\nmse = 68055555.6\nsamples = 2\nvalue = 624166.7"] ;
1108 -> 1109 ;
1110 [label="mse = 0.0\nsamples = 1\nvalue = 630000.0"] ;
1109 -> 1110 ;
1111 [label="mse = 0.0\nsamples = 1\nvalue = 612500.0"] ;
1109 -> 1111 ;
1112 [label="mse = 0.0\nsamples = 1\nvalue = 650000.0"] ;
1108 -> 1112 ;
1113 [label="poi8 <= 0.5\nmse = 20162500000.0\nsamples = 5\nvalue = 375000.0"] ;
827 -> 1113 ;
1114 [label="year <= 1935.0\nmse = 54000000.0\nsamples = 2\nvalue = 271000.0"] ;
1113 -> 1114 ;
1115 [label="mse = 0.0\nsamples = 1\nvalue = 265000.0"] ;
1114 -> 1115 ;
1116 [label="mse = 0.0\nsamples = 1\nvalue = 280000.0"] ;
1114 -> 1116 ;
1117 [label="poi1 <= 89.5\nmse = 5605555555.6\nsamples = 3\nvalue = 548333.3"] ;
1113 -> 1117 ;
1118 [label="gross_area <= 1181.5\nmse = 400000000.0\nsamples = 2\nvalue = 600000.0"] ;
1117 -> 1118 ;
1119 [label="mse = 0.0\nsamples = 1\nvalue = 580000.0"] ;
1118 -> 1119 ;
1120 [label="mse = 0.0\nsamples = 1\nvalue = 620000.0"] ;
1118 -> 1120 ;
1121 [label="mse = 0.0\nsamples = 1\nvalue = 445000.0"] ;
1117 -> 1121 ;
1122 [label="poi8 <= 3.5\nmse = 25066567695.1\nsamples = 140\nvalue = 712658.0"] ;
762 -> 1122 ;
1123 [label="land_area <= 2406.0\nmse = 22139424321.1\nsamples = 139\nvalue = 709048.7"] ;
1122 -> 1123 ;
1124 [label="gross_area <= 1520.0\nmse = 14829339274.7\nsamples = 90\nvalue = 668722.4"] ;
1123 -> 1124 ;
1125 [label="gross_area <= 1507.5\nmse = 18694031260.3\nsamples = 25\nvalue = 598631.8"] ;
1124 -> 1125 ;
1126 [label="poi12 <= 1.5\nmse = 14101451524.9\nsamples = 23\nvalue = 614411.9"] ;
1125 -> 1126 ;
1127 [label="year <= 1927.0\nmse = 10826361094.6\nsamples = 22\nvalue = 605129.3"] ;
1126 -> 1127 ;
1128 [label="land_area <= 2200.0\nmse = 6328089843.8\nsamples = 5\nvalue = 504562.5"] ;
1127 -> 1128 ;
1129 [label="poi10 <= 2.0\nmse = 3102368055.6\nsamples = 4\nvalue = 541083.3"] ;
1128 -> 1129 ;
1130 [label="poi9 <= 0.5\nmse = 4320171875.0\nsamples = 3\nvalue = 551625.0"] ;
1129 -> 1130 ;
1131 [label="mse = 5760222222.2\nsamples = 2\nvalue = 551666.7"] ;
1130 -> 1131 ;
1132 [label="mse = 0.0\nsamples = 1\nvalue = 551500.0"] ;
1130 -> 1132 ;
1133 [label="mse = 0.0\nsamples = 1\nvalue = 520000.0"] ;
1129 -> 1133 ;
1134 [label="mse = 0.0\nsamples = 1\nvalue = 395000.0"] ;
1128 -> 1134 ;
1135 [label="poi9 <= 0.5\nmse = 8870675371.9\nsamples = 17\nvalue = 629509.1"] ;
1127 -> 1135 ;
1136 [label="roadWidth <= 7028.0\nmse = 2606241735.5\nsamples = 11\nvalue = 584409.1"] ;
1135 -> 1136 ;
1137 [label="roadWidth <= 6347.5\nmse = 93173553.7\nsamples = 4\nvalue = 545909.1"] ;
1136 -> 1137 ;
1138 [label="numRoads <= 182.0\nmse = 25734375.0\nsamples = 3\nvalue = 540625.0"] ;
1137 -> 1138 ;
1139 [label="mse = 0.0\nsamples = 1\nvalue = 547000.0"] ;
1138 -> 1139 ;
1140 [label="totalPoi <= 58.5\nmse = 2160000.0\nsamples = 2\nvalue = 536800.0"] ;
1138 -> 1140 ;
1141 [label="mse = 0.0\nsamples = 1\nvalue = 535000.0"] ;
1140 -> 1141 ;
1142 [label="mse = 0.0\nsamples = 1\nvalue = 538000.0"] ;
1140 -> 1142 ;
1143 [label="mse = 0.0\nsamples = 1\nvalue = 560000.0"] ;
1137 -> 1143 ;
1144 [label="totalPoi <= 191.0\nmse = 2154809917.4\nsamples = 7\nvalue = 622909.1"] ;
1136 -> 1144 ;
1145 [label="numRoads <= 242.5\nmse = 312555555.6\nsamples = 4\nvalue = 589333.3"] ;
1144 -> 1145 ;
1146 [label="mse = 0.0\nsamples = 1\nvalue = 550000.0"] ;
1145 -> 1146 ;
1147 [label="numSubways <= 0.5\nmse = 3760000.0\nsamples = 3\nvalue = 597200.0"] ;
1145 -> 1147 ;
1148 [label="mse = 888888.9\nsamples = 2\nvalue = 598666.7"] ;
1147 -> 1148 ;
1149 [label="mse = 0.0\nsamples = 1\nvalue = 595000.0"] ;
1147 -> 1149 ;
1150 [label="poi2 <= 324.0\nmse = 1389360000.0\nsamples = 3\nvalue = 663200.0"] ;
1144 -> 1150 ;
1151 [label="mse = 0.0\nsamples = 1\nvalue = 730000.0"] ;
1150 -> 1151 ;
1152 [label="numRoads <= 245.0\nmse = 342250000.0\nsamples = 2\nvalue = 646500.0"] ;
1150 -> 1152 ;
1153 [label="mse = 0.0\nsamples = 1\nvalue = 628000.0"] ;
1152 -> 1153 ;
1154 [label="mse = 0.0\nsamples = 1\nvalue = 665000.0"] ;
1152 -> 1154 ;
1155 [label="roadWidth <= 6994.0\nmse = 9195482644.6\nsamples = 6\nvalue = 719709.1"] ;
1135 -> 1155 ;
1156 [label="numViolations <= 5.5\nmse = 41345714.3\nsamples = 4\nvalue = 787400.0"] ;
1155 -> 1156 ;
1157 [label="poi2 <= 177.5\nmse = 6250000.0\nsamples = 2\nvalue = 792500.0"] ;
1156 -> 1157 ;
1158 [label="mse = 0.0\nsamples = 1\nvalue = 790000.0"] ;
1157 -> 1158 ;
1159 [label="mse = 0.0\nsamples = 1\nvalue = 795000.0"] ;
1157 -> 1159 ;
1160 [label="numBuses <= 1.5\nmse = 7220000.0\nsamples = 2\nvalue = 780600.0"] ;
1156 -> 1160 ;
1161 [label="mse = 0.0\nsamples = 1\nvalue = 776800.0"] ;
1160 -> 1161 ;
1162 [label="mse = 0.0\nsamples = 1\nvalue = 782500.0"] ;
1160 -> 1162 ;
1163 [label="poi1 <= 133.0\nmse = 3164062500.0\nsamples = 2\nvalue = 601250.0"] ;
1155 -> 1163 ;
1164 [label="mse = 0.0\nsamples = 1\nvalue = 545000.0"] ;
1163 -> 1164 ;
1165 [label="mse = 0.0\nsamples = 1\nvalue = 657500.0"] ;
1163 -> 1165 ;
1166 [label="mse = 0.0\nsamples = 1\nvalue = 995000.0"] ;
1126 -> 1166 ;
1167 [label="poi1 <= 151.5\nmse = 95062500.0\nsamples = 2\nvalue = 267250.0"] ;
1125 -> 1167 ;
1168 [label="mse = 0.0\nsamples = 1\nvalue = 277000.0"] ;
1167 -> 1168 ;
1169 [label="mse = 0.0\nsamples = 1\nvalue = 257500.0"] ;
1167 -> 1169 ;
1170 [label="type <= 0.5\nmse = 10236486538.4\nsamples = 65\nvalue = 698376.2"] ;
1124 -> 1170 ;
1171 [label="totalPoi <= 137.0\nmse = 7857726768.6\nsamples = 45\nvalue = 667569.2"] ;
1170 -> 1171 ;
1172 [label="gross_area <= 1835.0\nmse = 4798991735.5\nsamples = 6\nvalue = 755909.1"] ;
1171 -> 1172 ;
1173 [label="year <= 1947.5\nmse = 1469610000.0\nsamples = 5\nvalue = 737300.0"] ;
1172 -> 1173 ;
1174 [label="land_area <= 2050.0\nmse = 1125984375.0\nsamples = 4\nvalue = 725375.0"] ;
1173 -> 1174 ;
1175 [label="poi2 <= 178.0\nmse = 1396250000.0\nsamples = 3\nvalue = 730500.0"] ;
1174 -> 1175 ;
1176 [label="mse = 0.0\nsamples = 1\nvalue = 715000.0"] ;
1175 -> 1176 ;
1177 [label="mse = 2312000000.0\nsamples = 2\nvalue = 746000.0"] ;
1175 -> 1177 ;
1178 [label="mse = 0.0\nsamples = 1\nvalue = 710000.0"] ;
1174 -> 1178 ;
1179 [label="mse = 0.0\nsamples = 1\nvalue = 785000.0"] ;
1173 -> 1179 ;
1180 [label="mse = 0.0\nsamples = 1\nvalue = 942000.0"] ;
1172 -> 1180 ;
1181 [label="poi5 <= 6.0\nmse = 6791286268.2\nsamples = 39\nvalue = 652144.8"] ;
1171 -> 1181 ;
1182 [label="land_area <= 2027.0\nmse = 5600762571.5\nsamples = 37\nvalue = 658772.5"] ;
1181 -> 1182 ;
1183 [label="poi13 <= 0.5\nmse = 3946445226.6\nsamples = 28\nvalue = 679759.0"] ;
1182 -> 1183 ;
1184 [label="poi3 <= 11.5\nmse = 2744355114.4\nsamples = 23\nvalue = 664789.1"] ;
1183 -> 1184 ;
1185 [label="poi4 <= 3.5\nmse = 1507048888.9\nsamples = 10\nvalue = 696533.3"] ;
1184 -> 1185 ;
1186 [label="numViolations <= 4.5\nmse = 1193632653.1\nsamples = 4\nvalue = 670285.7"] ;
1185 -> 1186 ;
1187 [label="roadWidth <= 7166.0\nmse = 225000000.0\nsamples = 2\nvalue = 625000.0"] ;
1186 -> 1187 ;
1188 [label="mse = 0.0\nsamples = 1\nvalue = 610000.0"] ;
1187 -> 1188 ;
